{"learner":{"attributes":{"best_iteration":"174","best_score":"16.09760315161378"},"feature_names":["op_setting_1","op_setting_2","op_setting_3","sensor_2","sensor_3","sensor_4","sensor_7","sensor_8","sensor_9","sensor_11","sensor_12","sensor_13","sensor_14","sensor_15","sensor_17","sensor_20","sensor_21","op_setting_1_roll_mean","op_setting_1_roll_std","op_setting_2_roll_mean","op_setting_2_roll_std","op_setting_3_roll_mean","op_setting_3_roll_std","sensor_2_roll_mean","sensor_2_roll_std","sensor_3_roll_mean","sensor_3_roll_std","sensor_4_roll_mean","sensor_4_roll_std","sensor_7_roll_mean","sensor_7_roll_std","sensor_8_roll_mean","sensor_8_roll_std","sensor_9_roll_mean","sensor_9_roll_std","sensor_11_roll_mean","sensor_11_roll_std","sensor_12_roll_mean","sensor_12_roll_std","sensor_13_roll_mean","sensor_13_roll_std","sensor_14_roll_mean","sensor_14_roll_std","sensor_15_roll_mean","sensor_15_roll_std","sensor_17_roll_mean","sensor_17_roll_std","sensor_20_roll_mean","sensor_20_roll_std","sensor_21_roll_mean","sensor_21_roll_std"],"feature_types":[],"gradient_booster":{"model":{"cats":{"enc":[],"feature_segments":[],"sorted_idx":[]},"gbtree_model_param":{"num_parallel_tree":"1","num_trees":"205"},"iteration_indptr":[0,1,2,3,4,5,6,7,8,9,10,11,12,13,14,15,16,17,18,19,20,21,22,23,24,25,26,27,28,29,30,31,32,33,34,35,36,37,38,39,40,41,42,43,44,45,46,47,48,49,50,51,52,53,54,55,56,57,58,59,60,61,62,63,64,65,66,67,68,69,70,71,72,73,74,75,76,77,78,79,80,81,82,83,84,85,86,87,88,89,90,91,92,93,94,95,96,97,98,99,100,101,102,103,104,105,106,107,108,109,110,111,112,113,114,115,116,117,118,119,120,121,122,123,124,125,126,127,128,129,130,131,132,133,134,135,136,137,138,139,140,141,142,143,144,145,146,147,148,149,150,151,152,153,154,155,156,157,158,159,160,161,162,163,164,165,166,167,168,169,170,171,172,173,174,175,176,177,178,179,180,181,182,183,184,185,186,187,188,189,190,191,192,193,194,195,196,197,198,199,200,201,202,203,204,205],"tree_info":[0,0,0,0,0,0,0,0,0,0,0,0,0,0,0,0,0,0,0,0,0,0,0,0,0,0,0,0,0,0,0,0,0,0,0,0,0,0,0,0,0,0,0,0,0,0,0,0,0,0,0,0,0,0,0,0,0,0,0,0,0,0,0,0,0,0,0,0,0,0,0,0,0,0,0,0,0,0,0,0,0,0,0,0,0,0,0,0,0,0,0,0,0,0,0,0,0,0,0,0,0,0,0,0,0,0,0,0,0,0,0,0,0,0,0,0,0,0,0,0,0,0,0,0,0,0,0,0,0,0,0,0,0,0,0,0,0,0,0,0,0,0,0,0,0,0,0,0,0,0,0,0,0,0,0,0,0,0,0,0,0,0,0,0,0,0,0,0,0,0,0,0,0,0,0,0,0,0,0,0,0,0,0,0,0,0,0,0,0,0,0,0,0,0,0,0,0,0,0,0,0,0,0,0,0],"trees":[{"base_weights":[-1.4101662E-1,1.8969656E1,-5.3733467E1,2.2348244E1,-2.6609175E1,-3.5278915E1,-7.011943E1,6.307935E0,2.6496721E1,-3.6900352E1,-6.5397825E0,-4.185953E1,-1.8238995E1,-6.2541275E1,-7.909865E1,1.2435031E1,-1.4326594E1,2.12273E1,3.3269253E1,-3.0557674E1,-5.1821728E1,1.0215133E1,-1.2821339E1,-3.8430157E1,-5.994291E1,-1.3645928E1,-3.9391422E1,-6.05419E1,-2.1691356E0,-2.4319484E0,-2.21963E0,-4.8306626E-1,4.2121255E-1,-2.7010435E-1,-7.6950884E-1,7.0802766E-1,1.3426876E-1,8.931258E-1,1.0650064E0,-7.6565814E-1,-1.0810026E0,-1.3397851E0,-1.7121149E0,4.0068752E-1,-5.0465524E-1,-2.4518532E-1,-6.9702405E-1,-1.2976996E0,-9.0130883E-1,-1.6689343E0,-2.0300748E0,-5.7648635E-1,4.681163E-2,-1.244965E0,-1.839704E-1,-1.9556739E0,-1.6738505E0],"categories":[],"categories_nodes":[],"categories_segments":[],"categories_sizes":[],"default_left":[0,0,0,0,0,0,0,0,0,0,0,0,0,0,0,0,0,0,0,0,0,0,0,0,0,0,0,0,0,0,0,0,0,0,0,0,0,0,0,0,0,0,0,0,0,0,0,0,0,0,0,0,0,0,0,0,0],"id":0,"left_children":[1,3,5,7,9,11,13,15,17,19,21,23,25,27,29,31,33,35,37,39,41,43,45,47,49,51,53,55,-1,-1,-1,-1,-1,-1,-1,-1,-1,-1,-1,-1,-1,-1,-1,-1,-1,-1,-1,-1,-1,-1,-1,-1,-1,-1,-1,-1,-1],"loss_changes":[1.3520298E7,1.499092E6,1.046839E6,6.02711E5,1.38552E5,1.8246225E5,1.20053E5,2.3571673E5,2.561715E5,4.043725E4,2.4232521E4,7.0749375E4,4.3862062E4,1.51625E4,2.4135E3,6.605986E4,2.5507508E4,1.60971E5,2.35125E4,7.7387188E3,2.3759688E3,5.5750347E3,7.893549E3,3.8894625E4,2.431875E3,3.196321E4,5.4228438E3,1.482675E4,0E0,0E0,0E0,0E0,0E0,0E0,0E0,0E0,0E0,0E0,0E0,0E0,0E0,0E0,0E0,0E0,0E0,0E0,0E0,0E0,0E0,0E0,0E0,0E0,0E0,0E0,0E0,0E0,0E0],"parents":[2147483647,0,0,1,1,2,2,3,3,4,4,5,5,6,6,7,7,8,8,9,9,10,10,11,11,12,12,13,13,14,14,15,15,16,16,17,17,18,18,19,19,20,20,21,21,22,22,23,23,24,24,25,25,26,26,27,27],"right_children":[2,4,6,8,10,12,14,16,18,20,22,24,26,28,30,32,34,36,38,40,42,44,46,48,50,52,54,56,-1,-1,-1,-1,-1,-1,-1,-1,-1,-1,-1,-1,-1,-1,-1,-1,-1,-1,-1,-1,-1,-1,-1,-1,-1,-1,-1,-1,-1],"split_conditions":[1.41245E3,9.075153E3,1.417422E3,3.8816666E1,3.888E1,2.3247E1,1.422084E3,9.06413E3,2.33622E1,9.10508E3,9.077979E3,9.09575E3,8.148716E3,8.18355E3,3.8552E1,5.52922E2,8.148003E3,9.066814E3,3.8977E1,9.084517E3,4.463709E0,1.404016E3,8.16764E3,5.20929E2,8.1955E3,5.53105E2,3.012216E-3,5.20505E2,-2.1691356E0,-2.4319484E0,-2.21963E0,-4.8306626E-1,4.2121255E-1,-2.7010435E-1,-7.6950884E-1,7.0802766E-1,1.3426876E-1,8.931258E-1,1.0650064E0,-7.6565814E-1,-1.0810026E0,-1.3397851E0,-1.7121149E0,4.0068752E-1,-5.0465524E-1,-2.4518532E-1,-6.9702405E-1,-1.2976996E0,-9.0130883E-1,-1.6689343E0,-2.0300748E0,-5.7648635E-1,4.681163E-2,-1.244965E0,-1.839704E-1,-1.9556739E0,-1.6738505E0],"split_indices":[27,33,27,47,47,49,27,33,49,8,33,8,41,12,47,29,41,33,47,33,42,27,12,37,12,29,18,37,0,0,0,0,0,0,0,0,0,0,0,0,0,0,0,0,0,0,0,0,0,0,0,0,0,0,0,0,0],"split_type":[0,0,0,0,0,0,0,0,0,0,0,0,0,0,0,0,0,0,0,0,0,0,0,0,0,0,0,0,0,0,0,0,0,0,0,0,0,0,0,0,0,0,0,0,0,0,0,0,0,0,0,0,0,0,0,0,0],"sum_hessian":[1.3199E4,9.73E3,3.469E3,9.059E3,6.71E2,1.633E3,1.836E3,1.862E3,7.197E3,4.43E2,2.28E2,1.177E3,4.56E2,1E3,8.36E2,1.436E3,4.26E2,4.05E3,3.147E3,3.13E2,1.3E2,6.2E1,1.66E2,9.92E2,1.85E2,3.76E2,8E1,8.36E2,1.64E2,5.93E2,2.43E2,7.6E1,1.36E3,2.91E2,1.35E2,3.547E3,5.03E2,1.231E3,1.916E3,1.66E2,1.47E2,5.9E1,7.1E1,5.6E1,6E0,1.16E2,5E1,6.27E2,3.65E2,1.24E2,6.1E1,2.75E2,1.01E2,7.5E1,5E0,4.16E2,4.2E2],"tree_param":{"num_deleted":"0","num_feature":"51","num_nodes":"57","size_leaf_vector":"1"}},{"base_weights":[7.4084796E-2,1.7833395E1,-5.3177155E1,2.1494654E1,-2.693143E1,-3.5172714E1,-6.741615E1,1.5310479E1,3.1614336E1,-7.6200213E0,-3.6381252E1,-4.0292706E1,-1.3365012E1,-5.8701576E1,-7.532371E1,1.8527494E1,-1.4324954E0,3.3984283E1,2.703229E1,2.21738E0,-2.2057177E1,-2.8894289E1,-4.7323257E1,-3.7397896E1,-5.8562027E1,-8.836046E0,-1.3802022E0,-5.5721558E1,-2.1256034E0,-2.1138892E0,-2.3506029E0,6.269558E-1,-7.3832184E-2,3.3681294E-1,-3.3408755E-1,1.0851223E0,9.644827E-1,9.8282534E-1,7.2173387E-1,3.625336E-1,-4.9210392E-2,-4.8018858E-1,-8.9539814E-1,-6.712028E-1,-1.0060796E0,-1.2634162E0,-1.6414163E0,-1.3118408E0,-8.549664E-1,-1.5270404E0,-1.8648885E0,-4.6128374E-2,-6.48953E-1,-1.7715967E0,-1.3567059E0],"categories":[],"categories_nodes":[],"categories_segments":[],"categories_sizes":[],"default_left":[0,0,0,0,0,0,0,0,0,0,0,0,0,0,0,0,0,0,0,0,0,0,0,0,0,0,0,0,0,0,0,0,0,0,0,0,0,0,0,0,0,0,0,0,0,0,0,0,0,0,0,0,0,0,0],"id":1,"left_children":[1,3,5,7,9,11,13,15,17,19,21,23,25,27,29,31,33,35,37,39,41,43,45,47,49,51,-1,53,-1,-1,-1,-1,-1,-1,-1,-1,-1,-1,-1,-1,-1,-1,-1,-1,-1,-1,-1,-1,-1,-1,-1,-1,-1,-1,-1],"loss_changes":[1.2569371E7,1.6341262E6,8.49787E5,5.761455E5,1.3731981E5,1.6359475E5,1.23408E5,3.0817338E5,3.70235E4,3.5412906E4,4.0085375E4,6.07445E4,4.113464E4,2.81725E4,8.749E3,2.3887162E5,1.1351154E5,8.06025E3,1.9591188E4,5.6914287E3,4.282699E3,8.420844E3,5.5499062E3,5.6775625E4,1.2770625E3,2.3127145E4,0E0,2.240725E4,0E0,0E0,0E0,0E0,0E0,0E0,0E0,0E0,0E0,0E0,0E0,0E0,0E0,0E0,0E0,0E0,0E0,0E0,0E0,0E0,0E0,0E0,0E0,0E0,0E0,0E0,0E0],"parents":[2147483647,0,0,1,1,2,2,3,3,4,4,5,5,6,6,7,7,8,8,9,9,10,10,11,11,12,12,13,13,14,14,15,15,16,16,17,17,18,18,19,19,20,20,21,21,22,22,23,23,24,24,25,25,27,27],"right_children":[2,4,6,8,10,12,14,16,18,20,22,24,26,28,30,32,34,36,38,40,42,44,46,48,50,52,-1,54,-1,-1,-1,-1,-1,-1,-1,-1,-1,-1,-1,-1,-1,-1,-1,-1,-1,-1,-1,-1,-1,-1,-1,-1,-1,-1,-1],"split_conditions":[4.7659E1,9.075153E3,6.4309E2,2.335576E1,4.7428E1,2.32503E1,4.7923E1,9.065833E3,3.921E2,9.083632E3,8.17034E3,8.169E3,8.148716E3,9.11602E3,8.50097E0,8.45287E0,8.43438E0,4.7219E1,8.138929E3,9.076846E3,2.6275465E-1,8.44704E0,9.112412E3,5.20901E2,9.100078E3,6.42896E2,-1.3802022E0,5.20749E2,-2.1256034E0,-2.1138892E0,-2.3506029E0,6.269558E-1,-7.3832184E-2,3.3681294E-1,-3.3408755E-1,1.0851223E0,9.644827E-1,9.8282534E-1,7.2173387E-1,3.625336E-1,-4.9210392E-2,-4.8018858E-1,-8.9539814E-1,-6.712028E-1,-1.0060796E0,-1.2634162E0,-1.6414163E0,-1.3118408E0,-8.549664E-1,-1.5270404E0,-1.8648885E0,-4.6128374E-2,-6.48953E-1,-1.7715967E0,-1.3567059E0],"split_indices":[35,33,23,49,35,49,35,33,45,33,12,12,41,8,43,43,43,35,41,33,24,43,33,37,33,23,0,37,0,0,0,0,0,0,0,0,0,0,0,0,0,0,0,0,0,0,0,0,0,0,0,0,0,0,0],"split_type":[0,0,0,0,0,0,0,0,0,0,0,0,0,0,0,0,0,0,0,0,0,0,0,0,0,0,0,0,0,0,0,0,0,0,0,0,0,0,0,0,0,0,0,0,0,0,0,0,0,0,0,0,0,0,0],"sum_hessian":[1.3289E4,9.966E3,3.323E3,9.213E3,7.53E2,1.469E3,1.854E3,5.72E3,3.493E3,2.48E2,5.05E2,1.189E3,2.8E2,8.86E2,9.68E2,4.798E3,9.22E2,2.298E3,1.195E3,1.48E2,1E2,3.02E2,2.03E2,1.029E3,1.6E2,2.47E2,3.3E1,7.16E2,1.7E2,3.81E2,5.87E2,4.311E3,4.87E2,4E2,5.22E2,1.04E3,1.258E3,4.05E2,7.9E2,4.1E1,1.07E2,5.8E1,4.2E1,1.28E2,1.74E2,1.23E2,8E1,5.99E2,4.3E2,5.6E1,1.04E2,1.58E2,8.9E1,5.4E2,1.76E2],"tree_param":{"num_deleted":"0","num_feature":"51","num_nodes":"55","size_leaf_vector":"1"}},{"base_weights":[7.21896E-2,1.713769E1,-5.313266E1,2.0744484E1,-1.993899E1,-3.599559E1,-6.61152E1,4.353631E0,2.505311E1,4.277953E0,-3.1953215E1,-2.1804062E1,-4.1805264E1,-5.8722084E1,-7.394172E1,1.0782457E1,-1.1136026E1,1.9705599E1,3.0911938E1,1.273026E1,-1.0000059E1,-2.7047096E1,-4.7060238E1,-1.58366585E1,-3.9262836E1,-3.8259E1,-5.54147E1,-5.5909313E1,-2.0987966E0,-2.1295128E0,-2.3188226E0,-5.93312E-1,4.036074E-1,4.406796E-1,-3.992456E-1,8.527998E-1,4.6551752E-1,1.010866E0,8.225614E-1,-3.2796735E-1,5.250751E-1,-4.8737022E-1,-1.5478788E-1,-6.024385E-1,-9.69872E-1,-1.050167E0,-1.4931641E0,1.254089E-1,-5.795163E-1,-8.302301E-1,-1.3522933E0,-7.341341E-1,-1.2007968E0,-1.4961284E0,-1.837607E0,-1.3072652E0,-1.7228982E0],"categories":[],"categories_nodes":[],"categories_segments":[],"categories_sizes":[],"default_left":[0,0,0,0,0,0,0,0,0,0,0,0,0,0,0,0,0,0,0,0,0,0,0,0,0,0,0,0,0,0,0,0,0,0,0,0,0,0,0,0,0,0,0,0,0,0,0,0,0,0,0,0,0,0,0,0,0],"id":2,"left_children":[1,3,5,7,9,11,13,15,17,19,21,23,25,27,29,31,33,35,37,39,41,43,45,47,49,51,53,55,-1,-1,-1,-1,-1,-1,-1,-1,-1,-1,-1,-1,-1,-1,-1,-1,-1,-1,-1,-1,-1,-1,-1,-1,-1,-1,-1,-1,-1],"loss_changes":[1.2072336E7,1.346653E6,7.16018E5,6.478485E5,2.5995316E5,1.14021375E5,1.01893E5,1.9041806E5,2.27004E5,3.59699E4,4.2974875E4,4.178092E4,4.556325E4,2.6086E4,3.319E3,1.105458E5,3.166579E4,1.3839725E5,3.2769E4,2.1307986E4,3.2718936E3,1.6018094E4,2.9979062E3,2.1330117E4,5.69175E3,1.82005E4,3.4838125E3,1.182625E4,0E0,0E0,0E0,0E0,0E0,0E0,0E0,0E0,0E0,0E0,0E0,0E0,0E0,0E0,0E0,0E0,0E0,0E0,0E0,0E0,0E0,0E0,0E0,0E0,0E0,0E0,0E0,0E0,0E0],"parents":[2147483647,0,0,1,1,2,2,3,3,4,4,5,5,6,6,7,7,8,8,9,9,10,10,11,11,12,12,13,13,14,14,15,15,16,16,17,17,18,18,19,19,20,20,21,21,22,22,23,23,24,24,25,25,26,26,27,27],"right_children":[2,4,6,8,10,12,14,16,18,20,22,24,26,28,30,32,34,36,38,40,42,44,46,48,50,52,54,56,-1,-1,-1,-1,-1,-1,-1,-1,-1,-1,-1,-1,-1,-1,-1,-1,-1,-1,-1,-1,-1,-1,-1,-1,-1,-1,-1,-1,-1],"split_conditions":[1.413063E3,9.072951E3,1.417422E3,3.881333E1,1.588678E3,6.42896E2,4.794E1,9.061503E3,2.335576E1,9.078602E3,9.10287E3,9.072608E3,8.16663E3,9.11602E3,4.8024E1,5.52938E2,2.52448E0,9.053412E3,4.7272E1,5.53773E2,5.5398E2,1.590724E3,4.7458E1,6.42727E2,2.3019074E-1,1.592023E3,9.104397E3,4.7788E1,-2.0987966E0,-2.1295128E0,-2.3188226E0,-5.93312E-1,4.036074E-1,4.406796E-1,-3.992456E-1,8.527998E-1,4.6551752E-1,1.010866E0,8.225614E-1,-3.2796735E-1,5.250751E-1,-4.8737022E-1,-1.5478788E-1,-6.024385E-1,-9.69872E-1,-1.050167E0,-1.4931641E0,1.254089E-1,-5.795163E-1,-8.302301E-1,-1.3522933E0,-7.341341E-1,-1.2007968E0,-1.4961284E0,-1.837607E0,-1.3072652E0,-1.7228982E0],"split_indices":[27,33,27,47,25,23,35,33,49,33,8,33,12,8,35,29,28,33,35,29,29,25,35,23,38,25,33,35,0,0,0,0,0,0,0,0,0,0,0,0,0,0,0,0,0,0,0,0,0,0,0,0,0,0,0,0,0],"split_type":[0,0,0,0,0,0,0,0,0,0,0,0,0,0,0,0,0,0,0,0,0,0,0,0,0,0,0,0,0,0,0,0,0,0,0,0,0,0,0,0,0,0,0,0,0,0,0,0,0,0,0,0,0,0,0,0,0],"sum_hessian":[1.3294E4,1.0066E4,3.228E3,9.174E3,8.92E2,1.393E3,1.835E3,1.91E3,7.264E3,2.96E2,5.96E2,4.06E2,9.87E2,9.48E2,8.87E2,1.35E3,5.6E2,3.8E3,3.464E3,1.86E2,1.1E2,4.52E2,1.44E2,3.04E2,1.02E2,7.86E2,2.01E2,7.63E2,1.85E2,4.83E2,4.04E2,1.08E2,1.242E3,4.3E1,5.17E2,1.231E3,2.569E3,1.923E3,1.541E3,3.1E1,1.55E2,4.7E1,6.3E1,1.97E2,2.55E2,2.9E1,1.15E2,4.5E1,2.59E2,3.6E1,6.6E1,9.1E1,6.95E2,1.08E2,9.3E1,8.7E1,6.76E2],"tree_param":{"num_deleted":"0","num_feature":"51","num_nodes":"57","size_leaf_vector":"1"}},{"base_weights":[-3.6725804E-2,1.6538263E1,-5.1667675E1,1.9821566E1,-2.5158964E1,-3.5068012E1,-6.415465E1,2.5601095E1,7.637024E0,-1.0684571E0,-3.336271E1,-2.6565664E1,-4.376712E1,-5.743284E1,-7.2181114E1,2.1791828E1,3.1957817E1,1.2465611E1,-9.223981E0,8.936173E0,-9.2350445E0,-2.4861559E1,-4.2648033E1,-2.0908997E1,-3.982661E1,-4.0267204E1,-5.4839275E1,-5.1598022E1,-6.0995335E1,-2.0392373E0,-2.2321367E0,8.4558284E-1,5.794369E-1,1.0098848E0,8.929264E-1,4.7941092E-1,-2.948968E-1,1.2483334E-1,-5.1756567E-1,3.7901956E-1,-1.3721414E-1,-8.938048E-2,-4.5595384E-1,-8.699887E-1,-4.3767104E-1,-1.0141596E0,-1.42764E0,-4.5583233E-1,-1.0655347E0,-1.051228E0,-1.5529265E0,-1.0796086E0,-1.3680187E0,-1.4609214E0,-1.7949059E0,-1.4841661E0,-1.8221964E0,-1.7788378E0,-2.032278E0],"categories":[],"categories_nodes":[],"categories_segments":[],"categories_sizes":[],"default_left":[0,0,0,0,0,0,0,0,0,0,0,0,0,0,0,0,0,0,0,0,0,0,0,0,0,0,0,0,0,0,0,0,0,0,0,0,0,0,0,0,0,0,0,0,0,0,0,0,0,0,0,0,0,0,0,0,0,0,0],"id":3,"left_children":[1,3,5,7,9,11,13,15,17,19,21,23,25,27,29,31,33,35,37,39,41,43,45,47,49,51,53,55,57,-1,-1,-1,-1,-1,-1,-1,-1,-1,-1,-1,-1,-1,-1,-1,-1,-1,-1,-1,-1,-1,-1,-1,-1,-1,-1,-1,-1,-1,-1],"loss_changes":[1.1392174E7,1.3800868E6,6.683E5,6.5767675E5,1.4542181E5,1.017195E5,9.5397E4,1.5272625E5,2.4492936E5,1.5442819E4,4.22755E4,5.212625E4,2.43755E4,1.782625E4,2.771E3,6.22625E4,7.8695E3,1.8337022E5,7.206886E4,4.30416E3,3.8344727E3,1.1861844E4,9.792469E3,4.095158E4,1.01833125E4,1.03438125E4,2.0523438E3,4.554875E3,3.10925E3,0E0,0E0,0E0,0E0,0E0,0E0,0E0,0E0,0E0,0E0,0E0,0E0,0E0,0E0,0E0,0E0,0E0,0E0,0E0,0E0,0E0,0E0,0E0,0E0,0E0,0E0,0E0,0E0,0E0,0E0],"parents":[2147483647,0,0,1,1,2,2,3,3,4,4,5,5,6,6,7,7,8,8,9,9,10,10,11,11,12,12,13,13,14,14,15,15,16,16,17,17,18,18,19,19,20,20,21,21,22,22,23,23,24,24,25,25,26,26,27,27,28,28],"right_children":[2,4,6,8,10,12,14,16,18,20,22,24,26,28,30,32,34,36,38,40,42,44,46,48,50,52,54,56,58,-1,-1,-1,-1,-1,-1,-1,-1,-1,-1,-1,-1,-1,-1,-1,-1,-1,-1,-1,-1,-1,-1,-1,-1,-1,-1,-1,-1,-1,-1],"split_conditions":[1.413063E3,9.075153E3,1.417422E3,1.58957E3,1.588678E3,6.42974E2,1.422084E3,3.8966E1,9.064606E3,9.078602E3,9.089189E3,9.072951E3,8.16437E3,6.43153E2,8.50197E0,9.053412E3,3.918E2,8.45557E0,8.44112E0,1.404016E3,8.42129E0,3.8855E1,6.42648E2,2.388159E3,8.17034E3,4.782E1,8.17913E3,9.10508E3,8.18355E3,-2.0392373E0,-2.2321367E0,8.4558284E-1,5.794369E-1,1.0098848E0,8.929264E-1,4.7941092E-1,-2.948968E-1,1.2483334E-1,-5.1756567E-1,3.7901956E-1,-1.3721414E-1,-8.938048E-2,-4.5595384E-1,-8.699887E-1,-4.3767104E-1,-1.0141596E0,-1.42764E0,-4.5583233E-1,-1.0655347E0,-1.051228E0,-1.5529265E0,-1.0796086E0,-1.3680187E0,-1.4609214E0,-1.7949059E0,-1.4841661E0,-1.8221964E0,-1.7788378E0,-2.032278E0],"split_indices":[27,33,27,25,25,23,27,47,33,33,33,33,12,23,43,33,45,43,43,27,43,47,23,39,12,9,12,8,12,0,0,0,0,0,0,0,0,0,0,0,0,0,0,0,0,0,0,0,0,0,0,0,0,0,0,0,0,0,0],"split_type":[0,0,0,0,0,0,0,0,0,0,0,0,0,0,0,0,0,0,0,0,0,0,0,0,0,0,0,0,0,0,0,0,0,0,0,0,0,0,0,0,0,0,0,0,0,0,0,0,0,0,0,0,0,0,0,0,0,0,0],"sum_hessian":[1.331E4,1.0076E4,3.234E3,9.341E3,7.35E2,1.39E3,1.844E3,6.335E3,3.006E3,1.87E2,5.48E2,7.05E2,6.85E2,1.008E3,8.36E2,3.964E3,2.371E3,2.337E3,6.69E2,8.4E1,1.03E2,2.88E2,2.6E2,4.96E2,2.09E2,5.24E2,1.61E2,3.88E2,6.2E2,3E2,5.36E2,1.104E3,2.86E3,1.326E3,1.045E3,2.019E3,3.18E2,2.51E2,4.18E2,6.6E1,1.8E1,5.1E1,5.2E1,2.04E2,8.4E1,9.6E1,1.64E2,3.58E2,1.38E2,1.52E2,5.7E1,2.95E2,2.29E2,7.7E1,8.4E1,3.2E2,6.8E1,5.03E2,1.17E2],"tree_param":{"num_deleted":"0","num_feature":"51","num_nodes":"59","size_leaf_vector":"1"}},{"base_weights":[-4.6094082E-2,1.6977116E1,-4.7473423E1,1.9867426E1,-2.3183117E1,-3.1382229E1,-6.253494E1,5.8815756E0,2.3621708E1,-3.1248331E1,-3.3420823E0,-1.7998299E1,-3.8449516E1,-5.548254E1,-6.974651E1,1.2683011E1,-1.0311842E1,1.8993492E1,2.958475E1,-2.4694614E1,-4.4281006E1,4.926983E0,-1.229387E1,5.7952776E0,-2.1912651E1,-3.4834335E1,-5.1085888E1,-5.047126E1,-5.868154E1,-2.1536918E0,-1.9514498E0,5.158346E-1,-1.4968456E-2,-1.872297E-1,-6.884426E-1,6.370428E-1,1.2372395E-1,7.883957E-1,9.4301564E-1,-9.082846E-1,-5.4802155E-1,-1.1752316E0,-1.5643791E0,-5.700838E-2,4.20638E-1,-2.5556013E-1,-5.54501E-1,5.252174E-1,-3.3305058E-1,-5.194905E-1,-1.0918242E0,-1.2998168E0,-9.3071383E-1,-1.4361688E0,-1.8253572E0,-1.5307405E0,-6.854818E-1,-1.7110882E0,-1.9493476E0],"categories":[],"categories_nodes":[],"categories_segments":[],"categories_sizes":[],"default_left":[0,0,0,0,0,0,0,0,0,0,0,0,0,0,0,0,0,0,0,0,0,0,0,0,0,0,0,0,0,0,0,0,0,0,0,0,0,0,0,0,0,0,0,0,0,0,0,0,0,0,0,0,0,0,0,0,0,0,0],"id":4,"left_children":[1,3,5,7,9,11,13,15,17,19,21,23,25,27,29,31,33,35,37,39,41,43,45,47,49,51,53,55,57,-1,-1,-1,-1,-1,-1,-1,-1,-1,-1,-1,-1,-1,-1,-1,-1,-1,-1,-1,-1,-1,-1,-1,-1,-1,-1,-1,-1,-1,-1],"loss_changes":[1.0729078E7,1.1355632E6,8.487135E5,4.78881E5,1.05030125E5,1.6001312E5,8.8287E4,2.1291833E5,1.979245E5,3.8794094E4,1.4198949E4,5.498433E4,4.8974E4,1.1803E4,3.8925E3,8.094741E4,2.9280637E4,1.3495038E5,1.836875E4,1.06754375E4,4.1825312E3,6.2355513E3,1.9922715E3,1.6817686E4,3.3049812E4,2.6714125E4,4.771E3,4.4290625E3,2.054125E3,0E0,0E0,0E0,0E0,0E0,0E0,0E0,0E0,0E0,0E0,0E0,0E0,0E0,0E0,0E0,0E0,0E0,0E0,0E0,0E0,0E0,0E0,0E0,0E0,0E0,0E0,0E0,0E0,0E0,0E0],"parents":[2147483647,0,0,1,1,2,2,3,3,4,4,5,5,6,6,7,7,8,8,9,9,10,10,11,11,12,12,13,13,14,14,15,15,16,16,17,17,18,18,19,19,20,20,21,21,22,22,23,23,24,24,25,25,26,26,27,27,28,28],"right_children":[2,4,6,8,10,12,14,16,18,20,22,24,26,28,30,32,34,36,38,40,42,44,46,48,50,52,54,56,58,-1,-1,-1,-1,-1,-1,-1,-1,-1,-1,-1,-1,-1,-1,-1,-1,-1,-1,-1,-1,-1,-1,-1,-1,-1,-1,-1,-1,-1,-1],"split_conditions":[1.41245E3,9.075153E3,1.417422E3,3.8819E1,3.8897E1,6.42896E2,1.421883E3,9.061412E3,2.33622E1,9.098256E3,9.080635E3,6.42727E2,8.16353E3,6.43153E2,3.8552E1,2.388138E3,8.147856E3,9.066688E3,3.8973E1,3.8819E1,4.639024E0,6.379598E-2,8.164806E3,9.060622E3,9.072608E3,5.20749E2,8.1955E3,2.324189E1,8.18355E3,-2.1536918E0,-1.9514498E0,5.158346E-1,-1.4968456E-2,-1.872297E-1,-6.884426E-1,6.370428E-1,1.2372395E-1,7.883957E-1,9.4301564E-1,-9.082846E-1,-5.4802155E-1,-1.1752316E0,-1.5643791E0,-5.700838E-2,4.20638E-1,-2.5556013E-1,-5.54501E-1,5.252174E-1,-3.3305058E-1,-5.194905E-1,-1.0918242E0,-1.2998168E0,-9.3071383E-1,-1.4361688E0,-1.8253572E0,-1.5307405E0,-6.854818E-1,-1.7110882E0,-1.9493476E0],"split_indices":[27,33,27,47,47,23,27,33,49,33,33,23,12,23,47,39,41,33,47,47,42,50,41,33,33,37,12,49,12,0,0,0,0,0,0,0,0,0,0,0,0,0,0,0,0,0,0,0,0,0,0,0,0,0,0,0,0,0,0],"split_type":[0,0,0,0,0,0,0,0,0,0,0,0,0,0,0,0,0,0,0,0,0,0,0,0,0,0,0,0,0,0,0,0,0,0,0,0,0,0,0,0,0,0,0,0,0,0,0,0,0,0,0,0,0,0,0,0,0,0,0],"sum_hessian":[1.3287E4,9.778E3,3.509E3,9.122E3,6.56E2,1.698E3,1.811E3,1.931E3,7.191E3,4.66E2,1.9E2,5.88E2,1.11E3,9.2E2,8.91E2,1.36E3,5.71E2,4.051E3,3.14E3,3.12E2,1.54E2,9.9E1,9.1E1,8.3E1,5.05E2,8.66E2,2.44E2,3.65E2,5.55E2,6.11E2,2.8E2,1.013E3,3.47E2,4.33E2,1.38E2,3.52E3,5.31E2,1.132E3,2.008E3,1.65E2,1.47E2,9.7E1,5.7E1,5.7E1,4.2E1,5.8E1,3.3E1,4.9E1,3.4E1,3.85E2,1.2E2,2.65E2,6.01E2,1.88E2,5.6E1,3.57E2,8E0,4.48E2,1.07E2],"tree_param":{"num_deleted":"0","num_feature":"51","num_nodes":"59","size_leaf_vector":"1"}},{"base_weights":[1.3291653E-1,1.652112E1,-4.5961895E1,1.9464977E1,-2.2203884E1,-2.9055264E1,-5.9627193E1,2.330859E1,6.1473923E0,-1.7721323E0,-3.0539759E1,-1.6814093E1,-3.6517128E1,-5.1839767E1,-6.6935555E1,2.9945036E1,1.973672E1,1.2473311E1,-8.424524E0,2.8777359E0,-1.3286078E1,-2.5176405E1,-4.300426E1,-1.1128043E1,-3.4674816E1,-2.1019524E1,-3.9575085E1,-4.9059193E1,-6.165927E1,-1.905675E0,-2.1133318E0,9.586599E-1,8.433985E-1,6.3371754E-1,2.6532948E-1,4.5055246E-1,-4.3334395E-1,-8.425043E-2,-6.668498E-1,1.5973438E-1,-3.7674898E-1,-5.2653676E-1,-2.4268344E-1,-8.907623E-1,-5.243933E-1,-1.114424E0,-1.4806677E0,2.8692526E-1,-4.434703E-1,-4.053869E-1,-1.1120356E0,3.5278043E-1,-6.7757493E-1,-1.0966347E0,-1.5656545E0,-1.1543303E0,-1.5384096E0,-1.71076E0,-1.9744691E0],"categories":[],"categories_nodes":[],"categories_segments":[],"categories_sizes":[],"default_left":[0,0,0,0,0,0,0,0,0,0,0,0,0,0,0,0,0,0,0,0,0,0,0,0,0,0,0,0,0,0,0,0,0,0,0,0,0,0,0,0,0,0,0,0,0,0,0,0,0,0,0,0,0,0,0,0,0,0,0],"id":5,"left_children":[1,3,5,7,9,11,13,15,17,19,21,23,25,27,29,31,33,35,37,39,41,43,45,47,49,51,53,55,57,-1,-1,-1,-1,-1,-1,-1,-1,-1,-1,-1,-1,-1,-1,-1,-1,-1,-1,-1,-1,-1,-1,-1,-1,-1,-1,-1,-1,-1,-1],"loss_changes":[9.994094E6,1.1130808E6,7.99956E5,4.6418E5,1.1746425E5,1.4124012E5,1.056895E5,1.66265E5,1.8750858E5,1.0799438E4,3.1674531E4,5.9532766E4,4.4853E4,2.244925E4,7.3335E3,8.164E3,6.90015E4,9.736322E4,4.7692727E4,5.5054624E3,1.1435547E3,1.1471625E4,3.5975312E3,3.4092785E4,6.690172E3,8.531625E3,2.8724625E4,1.5231E4,1.37375E2,0E0,0E0,0E0,0E0,0E0,0E0,0E0,0E0,0E0,0E0,0E0,0E0,0E0,0E0,0E0,0E0,0E0,0E0,0E0,0E0,0E0,0E0,0E0,0E0,0E0,0E0,0E0,0E0,0E0,0E0],"parents":[2147483647,0,0,1,1,2,2,3,3,4,4,5,5,6,6,7,7,8,8,9,9,10,10,11,11,12,12,13,13,14,14,15,15,16,16,17,17,18,18,19,19,20,20,21,21,22,22,23,23,24,24,25,25,26,26,27,27,28,28],"right_children":[2,4,6,8,10,12,14,16,18,20,22,24,26,28,30,32,34,36,38,40,42,44,46,48,50,52,54,56,58,-1,-1,-1,-1,-1,-1,-1,-1,-1,-1,-1,-1,-1,-1,-1,-1,-1,-1,-1,-1,-1,-1,-1,-1,-1,-1,-1,-1,-1,-1],"split_conditions":[1.41245E3,9.075153E3,1.417029E3,1.590251E3,1.588678E3,6.42896E2,4.7923E1,3.921E2,9.061918E3,8.161092E3,9.10287E3,8.147452E3,1.592338E3,8.17913E3,4.8015E1,4.7231E1,9.067422E3,8.45771E0,8.147452E3,4.7417E1,5.5398E2,3.8842E1,9.11899E3,8.44974E0,1.590639E3,1.58933E3,8.17034E3,4.7788E1,8.193305E3,-1.905675E0,-2.1133318E0,9.586599E-1,8.433985E-1,6.3371754E-1,2.6532948E-1,4.5055246E-1,-4.3334395E-1,-8.425043E-2,-6.668498E-1,1.5973438E-1,-3.7674898E-1,-5.2653676E-1,-2.4268344E-1,-8.907623E-1,-5.243933E-1,-1.114424E0,-1.4806677E0,2.8692526E-1,-4.434703E-1,-4.053869E-1,-1.1120356E0,3.5278043E-1,-6.7757493E-1,-1.0966347E0,-1.5656545E0,-1.1543303E0,-1.5384096E0,-1.71076E0,-1.9744691E0],"split_indices":[27,33,27,25,25,23,35,45,33,41,8,41,25,12,35,35,33,43,41,35,29,47,8,43,25,25,12,35,41,0,0,0,0,0,0,0,0,0,0,0,0,0,0,0,0,0,0,0,0,0,0,0,0,0,0,0,0,0,0],"split_type":[0,0,0,0,0,0,0,0,0,0,0,0,0,0,0,0,0,0,0,0,0,0,0,0,0,0,0,0,0,0,0,0,0,0,0,0,0,0,0,0,0,0,0,0,0,0,0,0,0,0,0,0,0,0,0,0,0,0,0],"sum_hessian":[1.3228E4,9.759E3,3.469E3,9.07E3,6.89E2,1.552E3,1.917E3,7.038E3,2.032E3,2E2,4.89E2,5.89E2,9.63E2,9.32E2,9.85E2,2.46E3,4.578E3,1.417E3,6.15E2,1.43E2,5.7E1,3.44E2,1.45E2,4.48E2,1.41E2,1.6E2,8.03E2,7.31E2,2.01E2,5.09E2,4.76E2,1.165E3,1.295E3,4.06E3,5.18E2,1.295E3,1.22E2,4.38E2,1.77E2,1.24E2,1.9E1,3E1,2.7E1,2.15E2,1.29E2,7.9E1,6.6E1,6.7E1,3.81E2,1.5E1,1.26E2,7E0,1.53E2,6.51E2,1.52E2,1.3E2,6.01E2,1.02E2,9.9E1],"tree_param":{"num_deleted":"0","num_feature":"51","num_nodes":"59","size_leaf_vector":"1"}},{"base_weights":[-1.9628078E-2,1.5860787E1,-4.4723797E1,1.8690952E1,-2.2176802E1,-2.9030396E1,-5.8354893E1,2.333905E1,8.15601E0,-9.9310154E-1,-2.9952171E1,-6.841239E0,-3.2937305E1,-5.1314228E1,-6.529463E1,2.9093475E1,1.9609303E1,1.3676578E1,-5.0547314E0,8.447548E0,-8.316003E0,-2.395818E1,-4.0803467E1,-1.5041449E0,-3.296933E1,-2.947693E1,-4.7557137E1,-4.674022E1,-5.5576015E1,-1.8003256E0,-2.019242E0,6.8127525E-1,8.96315E-1,7.898377E-1,5.1302665E-1,4.9951497E-1,-7.0547774E-2,-2.3848815E-3,-5.5733895E-1,1.5574539E-1,7.02798E-1,-3.9787035E-2,-3.766401E-1,-5.521077E-1,-8.9257187E-1,-9.5788264E-1,-1.362924E0,9.375311E-1,-1.4634895E-1,-6.660827E-2,-1.1153507E0,-7.268999E-1,-1.1028332E0,-1.263573E0,-1.6343216E0,-1.337456E0,-1.6691822E0,-1.6881016E0,-1.3282357E0],"categories":[],"categories_nodes":[],"categories_segments":[],"categories_sizes":[],"default_left":[0,0,0,0,0,0,0,0,0,0,0,0,0,0,0,0,0,0,0,0,0,0,0,0,0,0,0,0,0,0,0,0,0,0,0,0,0,0,0,0,0,0,0,0,0,0,0,0,0,0,0,0,0,0,0,0,0,0,0],"id":6,"left_children":[1,3,5,7,9,11,13,15,17,19,21,23,25,27,29,31,33,35,37,39,41,43,45,47,49,51,53,55,57,-1,-1,-1,-1,-1,-1,-1,-1,-1,-1,-1,-1,-1,-1,-1,-1,-1,-1,-1,-1,-1,-1,-1,-1,-1,-1,-1,-1,-1,-1],"loss_changes":[9.357466E6,1.04744375E6,7.37393E5,4.4311175E5,1.109855E5,1.39174E5,8.69435E4,1.3423575E5,2.023062E5,1.2652444E4,3.1088438E4,3.3696844E4,6.775475E4,1.53755E4,5.8225E3,1.1669625E4,6.3827375E4,9.327491E4,5.5034598E4,3.780165E3,3.034961E3,9.751484E3,5.6944062E3,2.24777E4,5.223824E3,4.1456625E4,7.489875E3,6.182E3,1.21075E3,0E0,0E0,0E0,0E0,0E0,0E0,0E0,0E0,0E0,0E0,0E0,0E0,0E0,0E0,0E0,0E0,0E0,0E0,0E0,0E0,0E0,0E0,0E0,0E0,0E0,0E0,0E0,0E0,0E0,0E0],"parents":[2147483647,0,0,1,1,2,2,3,3,4,4,5,5,6,6,7,7,8,8,9,9,10,10,11,11,12,12,13,13,14,14,15,15,16,16,17,17,18,18,19,19,20,20,21,21,22,22,23,23,24,24,25,25,26,26,27,27,28,28],"right_children":[2,4,6,8,10,12,14,16,18,20,22,24,26,28,30,32,34,36,38,40,42,44,46,48,50,52,54,56,58,-1,-1,-1,-1,-1,-1,-1,-1,-1,-1,-1,-1,-1,-1,-1,-1,-1,-1,-1,-1,-1,-1,-1,-1,-1,-1,-1,-1,-1,-1],"split_conditions":[1.41245E3,9.075153E3,1.417195E3,1.58957E3,1.588678E3,6.42804E2,1.421597E3,3.921E2,9.061918E3,9.078602E3,9.096106E3,9.0707E3,8.16353E3,6.43178E2,8.49877E0,3.8934E1,9.053567E3,8.45383E0,8.147578E3,3.8586125E-2,8.41688E0,8.4463E0,4.7496E1,3.931111E2,1.59051E3,6.42988E2,9.104397E3,9.100078E3,3.8664E1,-1.8003256E0,-2.019242E0,6.8127525E-1,8.96315E-1,7.898377E-1,5.1302665E-1,4.9951497E-1,-7.0547774E-2,-2.3848815E-3,-5.5733895E-1,1.5574539E-1,7.02798E-1,-3.9787035E-2,-3.766401E-1,-5.521077E-1,-8.9257187E-1,-9.5788264E-1,-1.362924E0,9.375311E-1,-1.4634895E-1,-6.660827E-2,-1.1153507E0,-7.268999E-1,-1.1028332E0,-1.263573E0,-1.6343216E0,-1.337456E0,-1.6691822E0,-1.6881016E0,-1.3282357E0],"split_indices":[27,33,27,25,25,23,27,45,33,33,33,33,12,23,43,47,33,43,41,40,43,43,35,45,25,23,33,33,47,0,0,0,0,0,0,0,0,0,0,0,0,0,0,0,0,0,0,0,0,0,0,0,0,0,0,0,0,0,0],"split_type":[0,0,0,0,0,0,0,0,0,0,0,0,0,0,0,0,0,0,0,0,0,0,0,0,0,0,0,0,0,0,0,0,0,0,0,0,0,0,0,0,0,0,0,0,0,0,0,0,0,0,0,0,0,0,0,0,0,0,0],"sum_hessian":[1.3179E4,9.725E3,3.454E3,9.052E3,6.73E2,1.607E3,1.847E3,6.28E3,2.772E3,1.81E2,4.92E2,2.41E2,1.366E3,9.21E2,9.26E2,2.467E3,3.813E3,1.955E3,8.17E2,7.9E1,1.02E2,3.19E2,1.73E2,2.01E2,4E1,1.107E3,2.59E2,4.5E2,4.71E2,2.64E2,6.62E2,2.73E2,2.194E3,1.034E3,2.779E3,1.649E3,3.06E2,5.98E2,2.19E2,6.6E1,1.3E1,3.9E1,6.3E1,1.65E2,1.54E2,6.2E1,1.11E2,1.8E1,1.83E2,5E0,3.5E1,6.46E2,4.61E2,1.49E2,1.1E2,3.67E2,8.3E1,4.4E2,3.1E1],"tree_param":{"num_deleted":"0","num_feature":"51","num_nodes":"59","size_leaf_vector":"1"}},{"base_weights":[-8.325934E-2,1.5126426E1,-4.401001E1,1.8057718E1,-2.1593359E1,-2.6615189E1,-5.491453E1,1.226322E1,2.6004198E1,-1.5203962E0,-2.8815315E1,-3.222756E1,-1.3800385E1,-4.622552E1,-6.163042E1,1.466771E1,-4.754946E0,2.8395462E1,2.2200407E1,6.6460366E0,-7.89124E0,-2.191808E1,-3.751172E1,-4.19976E1,-2.8775879E1,-9.764558E0,-3.877787E1,-4.3592167E1,-5.4541676E1,-5.696635E1,-1.9548566E0,5.0349665E-1,-1.2843536E-1,6.7971885E-1,-2.128633E-1,9.064173E-1,7.963605E-1,8.1569916E-1,5.8416957E-1,3.0456996E-1,-1.629707E-1,-1.3786519E-2,-3.851621E-1,-2.7216664E-1,-7.272318E-1,-9.6984476E-1,-1.3516028E0,-1.2821177E0,-1.8823504E-1,-7.416126E-1,-1.1773518E0,-3.771672E-1,1.4665438E-1,-1.291764E0,-8.675776E-1,-1.1132289E0,-1.4106727E0,-1.518229E0,-1.7488042E0,-1.6725551E0,-1.905493E0],"categories":[],"categories_nodes":[],"categories_segments":[],"categories_sizes":[],"default_left":[0,0,0,0,0,0,0,0,0,0,0,0,0,0,0,0,0,0,0,0,0,0,0,0,0,0,0,0,0,0,0,0,0,0,0,0,0,0,0,0,0,0,0,0,0,0,0,0,0,0,0,0,0,0,0,0,0,0,0,0,0],"id":7,"left_children":[1,3,5,7,9,11,13,15,17,19,21,23,25,27,29,31,33,35,37,39,41,43,45,47,49,51,53,55,57,59,-1,-1,-1,-1,-1,-1,-1,-1,-1,-1,-1,-1,-1,-1,-1,-1,-1,-1,-1,-1,-1,-1,-1,-1,-1,-1,-1,-1,-1,-1,-1],"loss_changes":[8.912613E6,1.0669598E6,6.49338E5,4.2224375E5,1.0621631E5,9.477925E4,1.20162E5,2.1731419E5,3.456175E4,1.0197724E4,3.1507656E4,2.9816625E4,4.0447305E4,1.7835375E4,1.5823E4,1.8655462E5,4.2376906E4,7.178E3,1.9861188E4,3.6972874E3,4.038608E3,8.8218125E3,7.8085312E3,6.0205312E3,2.802825E4,1.4460832E4,1.1181953E3,1.3959125E4,2.675625E2,5.87625E2,0E0,0E0,0E0,0E0,0E0,0E0,0E0,0E0,0E0,0E0,0E0,0E0,0E0,0E0,0E0,0E0,0E0,0E0,0E0,0E0,0E0,0E0,0E0,0E0,0E0,0E0,0E0,0E0,0E0,0E0,0E0],"parents":[2147483647,0,0,1,1,2,2,3,3,4,4,5,5,6,6,7,7,8,8,9,9,10,10,11,11,12,12,13,13,14,14,15,15,16,16,17,17,18,18,19,19,20,20,21,21,22,22,23,23,24,24,25,25,26,26,27,27,28,28,29,29],"right_children":[2,4,6,8,10,12,14,16,18,20,22,24,26,28,30,32,34,36,38,40,42,44,46,48,50,52,54,56,58,60,-1,-1,-1,-1,-1,-1,-1,-1,-1,-1,-1,-1,-1,-1,-1,-1,-1,-1,-1,-1,-1,-1,-1,-1,-1,-1,-1,-1,-1,-1,-1],"split_conditions":[4.7653E1,9.075153E3,1.594833E3,2.334923E1,1.588678E3,2.32457E1,8.48846E0,9.066814E3,3.921E2,9.078602E3,9.090203E3,5.20749E2,9.072951E3,8.169769E3,1.423047E3,8.45287E0,4.7347E1,4.7231E1,8.13939E3,1.404016E3,8.41655E0,8.43117E0,9.10931E3,2.953134E-3,8.151642E3,5.53122E2,2.2075903E-2,4.7788E1,8.1955E3,9.119887E3,-1.9548566E0,5.0349665E-1,-1.2843536E-1,6.7971885E-1,-2.128633E-1,9.064173E-1,7.963605E-1,8.1569916E-1,5.8416957E-1,3.0456996E-1,-1.629707E-1,-1.3786519E-2,-3.851621E-1,-2.7216664E-1,-7.272318E-1,-9.6984476E-1,-1.3516028E0,-1.2821177E0,-1.8823504E-1,-7.416126E-1,-1.1773518E0,-3.771672E-1,1.4665438E-1,-1.291764E0,-8.675776E-1,-1.1132289E0,-1.4106727E0,-1.518229E0,-1.7488042E0,-1.6725551E0,-1.905493E0],"split_indices":[35,33,25,49,25,49,43,33,45,33,33,37,33,41,27,43,35,35,41,27,43,43,33,18,41,29,44,35,12,33,0,0,0,0,0,0,0,0,0,0,0,0,0,0,0,0,0,0,0,0,0,0,0,0,0,0,0,0,0,0,0],"split_type":[0,0,0,0,0,0,0,0,0,0,0,0,0,0,0,0,0,0,0,0,0,0,0,0,0,0,0,0,0,0,0,0,0,0,0,0,0,0,0,0,0,0,0,0,0,0,0,0,0,0,0,0,0,0,0,0,0,0,0,0,0],"sum_hessian":[1.3338E4,9.908E3,3.43E3,9.176E3,7.32E2,1.323E3,2.107E3,5.308E3,3.868E3,1.94E2,5.38E2,9.19E2,4.04E2,9.22E2,1.185E3,4.651E3,6.57E2,2.371E3,1.497E3,8.5E1,1.09E2,3.02E2,2.36E2,2.37E2,6.82E2,3.49E2,5.5E1,7.05E2,2.17E2,5.18E2,6.67E2,4.184E3,4.67E2,5.1E1,6.06E2,1.188E3,1.183E3,5.26E2,9.71E2,6.6E1,1.9E1,4.4E1,6.5E1,4.7E1,2.55E2,1.43E2,9.3E1,2.32E2,5E0,4.94E2,1.88E2,2.93E2,5.6E1,3.6E1,1.9E1,2.48E2,4.57E2,1.13E2,1.04E2,4.45E2,7.3E1],"tree_param":{"num_deleted":"0","num_feature":"51","num_nodes":"61","size_leaf_vector":"1"}},{"base_weights":[9.1821045E-2,1.484198E1,-4.1860123E1,1.738029E1,-2.2903444E1,-2.7603193E1,-5.5297367E1,2.1423492E1,6.114794E0,-2.498691E0,-2.89298E1,-1.680798E1,-3.5026325E1,-4.931189E1,-6.2177834E1,2.6746887E1,1.7431948E1,1.2407087E1,-5.7231665E0,1.2872787E1,-7.647051E0,-2.237465E1,-3.80536E1,-1.2009001E1,-3.232262E1,-3.1558392E1,-4.6299362E1,-4.7707554E1,-1.7235739E0,-1.9101309E0,-1.7176555E0,7.3031116E-1,8.5724276E-1,5.7186574E-1,1.5516518E-1,9.07435E-2,5.328028E-1,-3.7084827E-1,1.2843087E-1,-7.851303E-2,5.439904E-1,-3.0105786E-2,-3.527665E-1,-8.331457E-1,-4.8602623E-1,-9.317381E-1,-1.2620025E0,-6.013365E-1,-6.580838E-2,-8.790382E-1,-1.351937E0,-5.299419E-1,-1.0068431E0,-1.2568446E0,-1.5649143E0,-1.5752887E0,-1.3465521E0],"categories":[],"categories_nodes":[],"categories_segments":[],"categories_sizes":[],"default_left":[0,0,0,0,0,0,0,0,0,0,0,0,0,0,0,0,0,0,0,0,0,0,0,0,0,0,0,0,0,0,0,0,0,0,0,0,0,0,0,0,0,0,0,0,0,0,0,0,0,0,0,0,0,0,0,0,0],"id":8,"left_children":[1,3,5,7,9,11,13,15,17,19,21,23,25,27,29,31,33,35,37,39,41,43,45,47,49,51,53,55,-1,-1,-1,-1,-1,-1,-1,-1,-1,-1,-1,-1,-1,-1,-1,-1,-1,-1,-1,-1,-1,-1,-1,-1,-1,-1,-1,-1,-1],"loss_changes":[8.1972175E6,9.394275E5,6.58637E5,4.181885E5,7.592091E4,1.3355612E5,6.99515E4,1.431315E5,1.8085317E5,1.1336021E4,2.7676906E4,5.053867E4,3.7281125E4,9.7055E3,2.38925E3,1.201675E4,7.7149E4,7.955058E4,5.6038484E4,2.9807476E3,2.9111255E3,8.879422E3,4.2522812E3,4.1284977E4,4.877703E3,2.0585438E4,3.7814062E3,8.513125E3,0E0,0E0,0E0,0E0,0E0,0E0,0E0,0E0,0E0,0E0,0E0,0E0,0E0,0E0,0E0,0E0,0E0,0E0,0E0,0E0,0E0,0E0,0E0,0E0,0E0,0E0,0E0,0E0,0E0],"parents":[2147483647,0,0,1,1,2,2,3,3,4,4,5,5,6,6,7,7,8,8,9,9,10,10,11,11,12,12,13,13,14,14,15,15,16,16,17,17,18,18,19,19,20,20,21,21,22,22,23,23,24,24,25,25,26,26,27,27],"right_children":[2,4,6,8,10,12,14,16,18,20,22,24,26,28,30,32,34,36,38,40,42,44,46,48,50,52,54,56,-1,-1,-1,-1,-1,-1,-1,-1,-1,-1,-1,-1,-1,-1,-1,-1,-1,-1,-1,-1,-1,-1,-1,-1,-1,-1,-1,-1,-1],"split_conditions":[1.41245E3,9.07904E3,1.417422E3,3.931E2,1.588678E3,6.42916E2,1.422084E3,3.922E2,9.061503E3,9.076846E3,9.09762E3,9.072608E3,8.161092E3,9.11602E3,3.8557E1,3.8986E1,9.067422E3,2.3276726E1,3.8819E1,5.53898E2,9.0839E3,3.8819E1,6.42648E2,5.5299E2,8.166844E3,1.592023E3,5.9672294E0,5.5223E2,-1.7235739E0,-1.9101309E0,-1.7176555E0,7.3031116E-1,8.5724276E-1,5.7186574E-1,1.5516518E-1,9.07435E-2,5.328028E-1,-3.7084827E-1,1.2843087E-1,-7.851303E-2,5.439904E-1,-3.0105786E-2,-3.527665E-1,-8.331457E-1,-4.8602623E-1,-9.317381E-1,-1.2620025E0,-6.013365E-1,-6.580838E-2,-8.790382E-1,-1.351937E0,-5.299419E-1,-1.0068431E0,-1.2568446E0,-1.5649143E0,-1.5752887E0,-1.3465521E0],"split_indices":[27,8,27,45,25,23,27,45,33,33,8,33,41,8,47,47,33,49,47,29,8,47,23,29,41,25,34,29,0,0,0,0,0,0,0,0,0,0,0,0,0,0,0,0,0,0,0,0,0,0,0,0,0,0,0,0,0],"split_type":[0,0,0,0,0,0,0,0,0,0,0,0,0,0,0,0,0,0,0,0,0,0,0,0,0,0,0,0,0,0,0,0,0,0,0,0,0,0,0,0,0,0,0,0,0,0,0,0,0,0,0,0,0,0,0,0,0],"sum_hessian":[1.3245E4,9.8E3,3.445E3,9.183E3,6.17E2,1.673E3,1.772E3,6.757E3,2.426E3,1.41E2,4.76E2,6.83E2,9.9E2,9.52E2,8.2E2,2.893E3,3.864E3,1.584E3,8.42E2,3.5E1,1.06E2,2.79E2,1.97E2,5.23E2,1.6E2,7.6E2,2.3E2,8.01E2,1.51E2,6.2E2,2E2,1.256E3,1.637E3,3.41E3,4.54E2,5.76E2,1.008E3,5.06E2,3.36E2,9E0,2.6E1,4.1E1,6.5E1,1.47E2,1.32E2,7.5E1,1.22E2,2.87E2,2.36E2,1.32E2,2.8E1,9.7E1,6.63E2,1.36E2,9.4E1,2.9E2,5.11E2],"tree_param":{"num_deleted":"0","num_feature":"51","num_nodes":"57","size_leaf_vector":"1"}},{"base_weights":[-1.1494285E-1,1.4346021E1,-4.149734E1,1.7092892E1,-2.1522278E1,-2.7957851E1,-5.407141E1,2.2611433E1,9.892159E0,-5.137023E0,-2.915098E1,-1.993435E1,-3.685184E1,-4.790159E1,-6.002251E1,2.6478582E1,1.8919487E1,1.3966839E1,-5.0568337E0,2.8364582E0,-1.6646502E1,-2.3948586E1,-3.87485E1,-1.5545957E1,-3.3676056E1,-3.4129333E1,-1.4841822E0,-4.59275E1,-1.7451502E0,-1.702396E0,-1.8758013E0,8.498494E-1,7.3614436E-1,7.979608E-1,5.1165247E-1,4.7606432E-1,-1.6530198E-1,-8.193867E-3,-4.6011627E-1,2.3609307E-2,6.460967E-1,-3.779321E-1,-6.9190836E-1,-5.480416E-1,-8.3372957E-1,-1.0013562E0,-1.3095481E0,-7.958059E-1,-3.2006717E-1,-8.8831073E-1,-1.3525298E0,-1.1839088E0,-9.3272215E-1,-1.2489932E0,-1.4572155E0],"categories":[],"categories_nodes":[],"categories_segments":[],"categories_sizes":[],"default_left":[0,0,0,0,0,0,0,0,0,0,0,0,0,0,0,0,0,0,0,0,0,0,0,0,0,0,0,0,0,0,0,0,0,0,0,0,0,0,0,0,0,0,0,0,0,0,0,0,0,0,0,0,0,0,0],"id":9,"left_children":[1,3,5,7,9,11,13,15,17,19,21,23,25,27,29,31,33,35,37,39,41,43,45,47,49,51,-1,53,-1,-1,-1,-1,-1,-1,-1,-1,-1,-1,-1,-1,-1,-1,-1,-1,-1,-1,-1,-1,-1,-1,-1,-1,-1,-1,-1],"loss_changes":[7.884902E6,9.62372E5,5.793695E5,3.6019575E5,8.6724E4,1.16654125E5,6.20405E4,7.279875E4,2.3988256E5,2.0420293E4,2.2738906E4,5.176003E4,2.50785E4,1.502775E4,3.80225E3,8.295875E3,3.7200438E4,1.1470319E5,4.150228E4,5.0420176E3,2.0737559E3,6.2586406E3,2.8873281E3,3.500936E4,8.358984E3,9.2115E3,0E0,6.353375E3,0E0,0E0,0E0,0E0,0E0,0E0,0E0,0E0,0E0,0E0,0E0,0E0,0E0,0E0,0E0,0E0,0E0,0E0,0E0,0E0,0E0,0E0,0E0,0E0,0E0,0E0,0E0],"parents":[2147483647,0,0,1,1,2,2,3,3,4,4,5,5,6,6,7,7,8,8,9,9,10,10,11,11,12,12,13,13,14,14,15,15,16,16,17,17,18,18,19,19,20,20,21,21,22,22,23,23,24,24,25,25,27,27],"right_children":[2,4,6,8,10,12,14,16,18,20,22,24,26,28,30,32,34,36,38,40,42,44,46,48,50,52,-1,54,-1,-1,-1,-1,-1,-1,-1,-1,-1,-1,-1,-1,-1,-1,-1,-1,-1,-1,-1,-1,-1,-1,-1,-1,-1,-1,-1],"split_conditions":[4.7653E1,9.075651E3,1.417686E3,4.7449E1,4.7428E1,6.42974E2,4.794E1,3.921E2,9.063662E3,9.083632E3,8.1752E3,9.072951E3,9.096106E3,9.115732E3,8.50316E0,4.7238E1,9.054305E3,8.45485E0,8.44743E0,3.8586125E-2,2.6275465E-1,8.4463E0,4.50157E0,5.20901E2,9.093026E3,5.20749E2,-1.4841822E0,4.7852E1,-1.7451502E0,-1.702396E0,-1.8758013E0,8.498494E-1,7.3614436E-1,7.979608E-1,5.1165247E-1,4.7606432E-1,-1.6530198E-1,-8.193867E-3,-4.6011627E-1,2.3609307E-2,6.460967E-1,-3.779321E-1,-6.9190836E-1,-5.480416E-1,-8.3372957E-1,-1.0013562E0,-1.3095481E0,-7.958059E-1,-3.2006717E-1,-8.8831073E-1,-1.3525298E0,-1.1839088E0,-9.3272215E-1,-1.2489932E0,-1.4572155E0],"split_indices":[35,33,27,35,35,23,35,45,33,33,12,33,33,33,43,35,33,43,43,40,24,43,42,37,33,37,0,35,0,0,0,0,0,0,0,0,0,0,0,0,0,0,0,0,0,0,0,0,0,0,0,0,0,0,0],"split_type":[0,0,0,0,0,0,0,0,0,0,0,0,0,0,0,0,0,0,0,0,0,0,0,0,0,0,0,0,0,0,0,0,0,0,0,0,0,0,0,0,0,0,0,0,0,0,0,0,0,0,0,0,0,0,0],"sum_hessian":[1.3174E4,9.763E3,3.411E3,9.069E3,6.94E2,1.644E3,1.767E3,5.133E3,3.936E3,2.21E2,4.73E2,8.66E2,7.78E2,8.72E2,8.95E2,2.504E3,2.629E3,3.093E3,8.43E2,1.31E2,9E1,3.09E2,1.64E2,6.58E2,2.08E2,6.43E2,1.35E2,7.36E2,1.36E2,3.98E2,4.97E2,1.275E3,1.229E3,5.11E2,2.118E3,2.818E3,2.75E2,5.76E2,2.67E2,1.19E2,1.2E1,5.7E1,3.3E1,1.27E2,1.82E2,8.2E1,8.2E1,2.01E2,4.57E2,1.56E2,5.2E1,2.29E2,4.14E2,2.87E2,4.49E2],"tree_param":{"num_deleted":"0","num_feature":"51","num_nodes":"55","size_leaf_vector":"1"}},{"base_weights":[-6.81623E-2,1.4115133E1,-3.964764E1,1.6503618E1,-2.1579311E1,-2.5587856E1,-5.1693832E1,4.4122887E0,1.9735062E1,-2.8032393E0,-2.776404E1,-3.1199358E1,-1.2879444E1,-4.561502E1,-5.851872E1,1.0588588E1,-9.792298E0,1.5906007E1,2.4637901E1,1.1148743E1,-6.7329407E0,-2.3222914E1,-3.8010315E1,-2.4522488E0,-3.251107E1,9.529305E0,-1.63932E1,-4.341828E1,-1.6678904E0,-1.6745253E0,-1.8372263E0,3.7326664E-1,-5.3370434E-1,4.715678E-1,-3.5221E-1,5.4055613E-1,7.691694E-2,8.219322E-1,6.7713517E-1,5.395443E-1,-3.8327496E-2,-6.442661E-2,-3.633896E-1,-8.144905E-1,-5.377256E-1,-9.288665E-1,-1.2622751E0,2.3134899E-1,-6.284939E-1,-9.1079944E-1,-1.3348256E0,4.595951E-1,-3.5855684E-1,-3.7362266E-1,-9.0457964E-1,-1.3786837E0,-1.0495025E0],"categories":[],"categories_nodes":[],"categories_segments":[],"categories_sizes":[],"default_left":[0,0,0,0,0,0,0,0,0,0,0,0,0,0,0,0,0,0,0,0,0,0,0,0,0,0,0,0,0,0,0,0,0,0,0,0,0,0,0,0,0,0,0,0,0,0,0,0,0,0,0,0,0,0,0,0,0],"id":10,"left_children":[1,3,5,7,9,11,13,15,17,19,21,23,25,27,29,31,33,35,37,39,41,43,45,47,49,51,53,55,-1,-1,-1,-1,-1,-1,-1,-1,-1,-1,-1,-1,-1,-1,-1,-1,-1,-1,-1,-1,-1,-1,-1,-1,-1,-1,-1,-1,-1],"loss_changes":[7.44766E6,8.330481E5,5.91461E5,3.57621E5,7.110675E4,1.1491175E5,7.5493E4,1.696015E5,1.35226E5,8.463613E3,2.0567438E4,4.219075E4,3.9289445E4,1.95345E4,3.08175E3,7.1078625E4,2.9306844E4,1.1435919E5,1.744E4,2.9111816E3,2.9343389E3,6.213172E3,2.7088438E3,9.561902E3,2.6282E4,8.641457E3,2.2930484E4,1.6052625E4,0E0,0E0,0E0,0E0,0E0,0E0,0E0,0E0,0E0,0E0,0E0,0E0,0E0,0E0,0E0,0E0,0E0,0E0,0E0,0E0,0E0,0E0,0E0,0E0,0E0,0E0,0E0,0E0,0E0],"parents":[2147483647,0,0,1,1,2,2,3,3,4,4,5,5,6,6,7,7,8,8,9,9,10,10,11,11,12,12,13,13,14,14,15,15,16,16,17,17,18,18,19,19,20,20,21,21,22,22,23,23,24,24,25,25,26,26,27,27],"right_children":[2,4,6,8,10,12,14,16,18,20,22,24,26,28,30,32,34,36,38,40,42,44,46,48,50,52,54,56,-1,-1,-1,-1,-1,-1,-1,-1,-1,-1,-1,-1,-1,-1,-1,-1,-1,-1,-1,-1,-1,-1,-1,-1,-1,-1,-1,-1,-1],"split_conditions":[1.41245E3,9.07904E3,6.4309E2,3.8819E1,1.588678E3,2.324451E1,4.794E1,9.061503E3,2.33622E1,9.076846E3,9.10508E3,1.591327E3,6.42727E2,8.18929E3,4.8024E1,6.42902E2,2.52448E0,9.066688E3,4.7238E1,8.4204E0,8.161092E3,3.8826E1,4.7507E1,2.3691535E-3,9.09762E3,9.062573E3,8.148003E3,5.20749E2,-1.6678904E0,-1.6745253E0,-1.8372263E0,3.7326664E-1,-5.3370434E-1,4.715678E-1,-3.5221E-1,5.4055613E-1,7.691694E-2,8.219322E-1,6.7713517E-1,5.395443E-1,-3.8327496E-2,-6.442661E-2,-3.633896E-1,-8.144905E-1,-5.377256E-1,-9.288665E-1,-1.2622751E0,2.3134899E-1,-6.284939E-1,-9.1079944E-1,-1.3348256E0,4.595951E-1,-3.5855684E-1,-3.7362266E-1,-9.0457964E-1,-1.3786837E0,-1.0495025E0],"split_indices":[27,8,23,47,25,49,35,33,49,33,8,25,23,12,35,23,28,33,35,13,41,47,35,18,8,33,41,37,0,0,0,0,0,0,0,0,0,0,0,0,0,0,0,0,0,0,0,0,0,0,0,0,0,0,0,0,0],"split_type":[0,0,0,0,0,0,0,0,0,0,0,0,0,0,0,0,0,0,0,0,0,0,0,0,0,0,0,0,0,0,0,0,0,0,0,0,0,0,0,0,0,0,0,0,0,0,0,0,0,0,0,0,0,0,0,0,0],"sum_hessian":[1.3265E4,9.766E3,3.499E3,9.154E3,6.12E2,1.616E3,1.883E3,1.931E3,7.223E3,1.52E2,4.6E2,1.12E3,4.96E2,1E3,8.83E2,1.346E3,5.85E2,4.058E3,3.165E3,3.3E1,1.19E2,3.21E2,1.39E2,4.9E1,1.071E3,6.7E1,4.29E2,8.24E2,1.76E2,4.54E2,4.29E2,1.264E3,8.2E1,4.1E1,5.44E2,3.503E3,5.55E2,1.35E3,1.815E3,2.1E1,1.2E1,6.5E1,5.4E1,1.82E2,1.39E2,5.4E1,8.5E1,3.2E1,1.7E1,9.11E2,1.6E2,5.3E1,1.4E1,3.35E2,9.4E1,6.3E2,1.94E2],"tree_param":{"num_deleted":"0","num_feature":"51","num_nodes":"57","size_leaf_vector":"1"}},{"base_weights":[-2.567671E-1,1.3436339E1,-3.9149887E1,1.615595E1,-1.7004126E1,-2.1530655E1,-4.7934795E1,2.0089828E1,6.6456757E0,1.8740617E0,-2.5054995E1,-1.3426608E0,-2.426499E1,-4.0425602E1,-5.474815E1,2.5129967E1,1.6911976E1,1.110724E1,-3.6292973E0,8.873278E0,-7.123744E0,-2.0182451E1,-3.1970587E1,7.945067E0,-2.599313E1,-1.8413319E1,-3.0988216E1,-3.8177235E1,-4.9066387E1,-5.0647865E1,-5.771728E1,7.9022956E-1,6.943001E-1,7.5058067E-1,4.5866364E-1,-5.519076E-1,3.7867734E-1,2.5648499E-2,-4.8994765E-1,5.71341E-1,1.18967384E-1,-2.9033417E-1,1.3027842E-1,-5.021142E-1,-9.0588266E-1,-6.979801E-1,-1.0571655E0,-2.0867672E-2,8.8265145E-1,-1.7964703E-1,-9.338448E-1,-4.4034505E-1,-9.314446E-1,-6.60965E-1,-9.9975055E-1,-1.0124816E0,-1.269093E0,-1.3732841E0,-1.5838808E0,-1.6178231E0,-1.4356886E0,-1.6259724E0,-1.7718755E0],"categories":[],"categories_nodes":[],"categories_segments":[],"categories_sizes":[],"default_left":[0,0,0,0,0,0,0,0,0,0,0,0,0,0,0,0,0,0,0,0,0,0,0,0,0,0,0,0,0,0,0,0,0,0,0,0,0,0,0,0,0,0,0,0,0,0,0,0,0,0,0,0,0,0,0,0,0,0,0,0,0,0,0],"id":11,"left_children":[1,3,5,7,9,11,13,15,17,19,21,23,25,27,29,31,33,35,37,39,41,43,45,47,49,51,53,55,57,59,61,-1,-1,-1,-1,-1,-1,-1,-1,-1,-1,-1,-1,-1,-1,-1,-1,-1,-1,-1,-1,-1,-1,-1,-1,-1,-1,-1,-1,-1,-1,-1,-1],"loss_changes":[7.045863E6,8.103375E5,5.32197E5,3.35941E5,1.2209155E5,6.3337938E4,1.15359E5,1.01346E5,1.2060595E5,1.5240809E4,1.8325906E4,3.1801182E4,3.920425E4,1.9438875E4,1.171025E4,5.296875E3,5.0940625E4,8.222819E4,4.5411254E4,6.7133613E3,3.1463208E3,1.0983141E4,5.7518438E3,1.876327E4,3.7171758E3,2.5170062E4,9.08125E3,1.4557375E4,3.196875E2,2.115875E3,6.45E1,0E0,0E0,0E0,0E0,0E0,0E0,0E0,0E0,0E0,0E0,0E0,0E0,0E0,0E0,0E0,0E0,0E0,0E0,0E0,0E0,0E0,0E0,0E0,0E0,0E0,0E0,0E0,0E0,0E0,0E0,0E0,0E0],"parents":[2147483647,0,0,1,1,2,2,3,3,4,4,5,5,6,6,7,7,8,8,9,9,10,10,11,11,12,12,13,13,14,14,15,15,16,16,17,17,18,18,19,19,20,20,21,21,22,22,23,23,24,24,25,25,26,26,27,27,28,28,29,29,30,30],"right_children":[2,4,6,8,10,12,14,16,18,20,22,24,26,28,30,32,34,36,38,40,42,44,46,48,50,52,54,56,58,60,62,-1,-1,-1,-1,-1,-1,-1,-1,-1,-1,-1,-1,-1,-1,-1,-1,-1,-1,-1,-1,-1,-1,-1,-1,-1,-1,-1,-1,-1,-1,-1,-1],"split_conditions":[8.45633E0,9.073909E3,1.594359E3,1.589696E3,1.588678E3,1.590899E3,8.48846E0,3.921E2,9.061503E3,9.078602E3,9.089189E3,8.138846E3,6.42938E2,8.171567E3,3.954E2,3.918E2,8.129826E3,5.20997E2,6.4282E2,2.9268231E0,4.8475537E-1,2.3880967E3,3.9322223E2,8.136144E3,1.59E3,9.072951E3,1.592409E3,6.4309E2,9.13646E3,5.20282E2,6.43405E2,7.9022956E-1,6.943001E-1,7.5058067E-1,4.5866364E-1,-5.519076E-1,3.7867734E-1,2.5648499E-2,-4.8994765E-1,5.71341E-1,1.18967384E-1,-2.9033417E-1,1.3027842E-1,-5.021142E-1,-9.0588266E-1,-6.979801E-1,-1.0571655E0,-2.0867672E-2,8.8265145E-1,-1.7964703E-1,-9.338448E-1,-4.4034505E-1,-9.314446E-1,-6.60965E-1,-9.9975055E-1,-1.0124816E0,-1.269093E0,-1.3732841E0,-1.5838808E0,-1.6178231E0,-1.4356886E0,-1.6259724E0,-1.7718755E0],"split_indices":[43,33,25,25,25,25,43,45,33,33,33,41,23,41,45,45,41,37,23,42,30,31,45,41,25,33,25,23,8,37,23,0,0,0,0,0,0,0,0,0,0,0,0,0,0,0,0,0,0,0,0,0,0,0,0,0,0,0,0,0,0,0,0],"split_type":[0,0,0,0,0,0,0,0,0,0,0,0,0,0,0,0,0,0,0,0,0,0,0,0,0,0,0,0,0,0,0,0,0,0,0,0,0,0,0,0,0,0,0,0,0,0,0,0,0,0,0,0,0,0,0,0,0,0,0,0,0,0,0],"sum_hessian":[1.3228E4,9.784E3,3.444E3,8.982E3,8.02E2,1.147E3,2.297E3,6.353E3,2.629E3,2.4E2,5.62E2,1.37E2,1.01E3,1.096E3,1.201E3,2.454E3,3.899E3,1.833E3,7.96E2,1.35E2,1.05E2,3.32E2,2.3E2,1E2,3.7E1,5.42E2,4.68E2,8.74E2,2.22E2,5.12E2,6.89E2,1.517E3,9.37E2,6.48E2,3.251E3,8.9E1,1.744E3,5.89E2,2.07E2,4.3E1,9.2E1,8.6E1,1.9E1,2.49E2,8.3E1,6.5E1,1.65E2,7.2E1,2.8E1,8E0,2.9E1,4.2E2,1.22E2,9.9E1,3.69E2,4.26E2,4.48E2,1.25E2,9.7E1,2.27E2,2.85E2,2.02E2,4.87E2],"tree_param":{"num_deleted":"0","num_feature":"51","num_nodes":"63","size_leaf_vector":"1"}},{"base_weights":[1.0381294E-1,1.3621621E1,-3.6787144E1,1.5873771E1,-1.9141031E1,-2.0159435E1,-4.65147E1,1.961245E1,6.6690974E0,-1.0959541E0,-2.5038794E1,9.098857E-1,-2.3267311E1,-3.9246925E1,-5.2965008E1,1.5805305E1,2.3456146E1,1.2711824E1,-5.5421E0,1.1004413E1,-6.3034887E0,-1.9250166E1,-2.9351635E1,7.574243E0,-2.6986816E1,-1.7560186E1,-2.9937426E1,-3.6997547E1,-4.7193607E1,-4.8928963E1,-5.6010906E1,5.262185E-1,1.4235622E-1,7.0953906E-1,9.952192E-2,-5.189225E-1,4.201315E-1,-2.7380922E-1,1.751813E-1,4.3053365E-1,-3.759307E-2,-2.94901E-2,-3.7686002E-1,-2.716997E-1,-7.03037E-1,-6.3360953E-1,-9.5649713E-1,-5.528008E-1,3.7195712E-1,-9.26091E-1,-1.310665E-1,-4.3111834E-1,-1.0142367E0,-6.56009E-1,-9.7021174E-1,-9.856703E-1,-1.2378849E0,-1.3244832E0,-1.5316439E0,-1.4135516E0,-1.5882106E0,-1.6138487E0,-1.7461334E0],"categories":[],"categories_nodes":[],"categories_segments":[],"categories_sizes":[],"default_left":[0,0,0,0,0,0,0,0,0,0,0,0,0,0,0,0,0,0,0,0,0,0,0,0,0,0,0,0,0,0,0,0,0,0,0,0,0,0,0,0,0,0,0,0,0,0,0,0,0,0,0,0,0,0,0,0,0,0,0,0,0,0,0],"id":12,"left_children":[1,3,5,7,9,11,13,15,17,19,21,23,25,27,29,31,33,35,37,39,41,43,45,47,49,51,53,55,57,59,61,-1,-1,-1,-1,-1,-1,-1,-1,-1,-1,-1,-1,-1,-1,-1,-1,-1,-1,-1,-1,-1,-1,-1,-1,-1,-1,-1,-1,-1,-1,-1,-1],"loss_changes":[6.616553E6,7.167701E5,5.745585E5,3.125485E5,6.648856E4,8.612844E4,1.031185E5,9.41765E4,1.938402E5,9.836393E3,1.11936875E4,3.1809715E4,4.3099312E4,1.718375E4,1.18395E4,6.2273938E4,1.2549125E4,6.839406E4,3.5550305E4,1.9460342E3,3.617169E3,8.489133E3,4.911297E3,1.7538777E4,2.763287E3,3.1644594E4,9.5129375E3,1.3307125E4,4.494375E2,1.26775E3,1.2075E2,0E0,0E0,0E0,0E0,0E0,0E0,0E0,0E0,0E0,0E0,0E0,0E0,0E0,0E0,0E0,0E0,0E0,0E0,0E0,0E0,0E0,0E0,0E0,0E0,0E0,0E0,0E0,0E0,0E0,0E0,0E0,0E0],"parents":[2147483647,0,0,1,1,2,2,3,3,4,4,5,5,6,6,7,7,8,8,9,9,10,10,11,11,12,12,13,13,14,14,15,15,16,16,17,17,18,18,19,19,20,20,21,21,22,22,23,23,24,24,25,25,26,26,27,27,28,28,29,29,30,30],"right_children":[2,4,6,8,10,12,14,16,18,20,22,24,26,28,30,32,34,36,38,40,42,44,46,48,50,52,54,56,58,60,62,-1,-1,-1,-1,-1,-1,-1,-1,-1,-1,-1,-1,-1,-1,-1,-1,-1,-1,-1,-1,-1,-1,-1,-1,-1,-1,-1,-1,-1,-1,-1,-1],"split_conditions":[8.45557E0,9.07904E3,1.594481E3,1.407588E3,1.588678E3,1.590899E3,8.48846E0,2.33622E1,8.13939E3,8.15771E3,9.08986E3,8.142082E3,6.42938E2,8.169769E3,1.423047E3,8.146146E3,8.154594E3,5.20984E2,3.8842E1,1.404866E3,8.42129E0,8.43942E0,3.931111E2,8.121839E3,4.055175E-2,9.08219E3,1.592531E3,4.786E1,9.13646E3,4.1895385E0,3.958E2,5.262185E-1,1.4235622E-1,7.0953906E-1,9.952192E-2,-5.189225E-1,4.201315E-1,-2.7380922E-1,1.751813E-1,4.3053365E-1,-3.759307E-2,-2.94901E-2,-3.7686002E-1,-2.716997E-1,-7.03037E-1,-6.3360953E-1,-9.5649713E-1,-5.528008E-1,3.7195712E-1,-9.26091E-1,-1.310665E-1,-4.3111834E-1,-1.0142367E0,-6.56009E-1,-9.7021174E-1,-9.856703E-1,-1.2378849E0,-1.3244832E0,-1.5316439E0,-1.4135516E0,-1.5882106E0,-1.6138487E0,-1.7461334E0],"split_indices":[43,8,25,27,25,25,43,49,41,12,8,41,23,41,27,41,41,37,47,27,43,43,45,41,40,8,25,9,8,42,45,0,0,0,0,0,0,0,0,0,0,0,0,0,0,0,0,0,0,0,0,0,0,0,0,0,0,0,0,0,0,0,0],"split_type":[0,0,0,0,0,0,0,0,0,0,0,0,0,0,0,0,0,0,0,0,0,0,0,0,0,0,0,0,0,0,0,0,0,0,0,0,0,0,0,0,0,0,0,0,0,0,0,0,0,0,0,0,0,0,0,0,0,0,0,0,0,0,0],"sum_hessian":[1.3266E4,9.709E3,3.557E3,9.085E3,6.24E2,1.314E3,2.243E3,6.46E3,2.625E3,1.54E2,4.7E2,1.69E2,1.145E3,1.058E3,1.185E3,3.248E3,3.212E3,1.756E3,8.69E2,4.6E1,1.08E2,2.03E2,2.67E2,1.37E2,3.2E1,6.19E2,5.26E2,8.29E2,2.29E2,5.17E2,6.68E2,2.807E3,4.41E2,3.181E3,3.1E1,7.2E1,1.684E3,6.61E2,2.08E2,3.6E1,1E1,5.9E1,4.9E1,6E1,1.43E2,6.5E1,2.02E2,2.1E1,1.16E2,2.7E1,5E0,5.19E2,1E2,1.23E2,4.03E2,4.25E2,4.04E2,1.35E2,9.4E1,3.65E2,1.52E2,3.45E2,3.23E2],"tree_param":{"num_deleted":"0","num_feature":"51","num_nodes":"63","size_leaf_vector":"1"}},{"base_weights":[1.4822388E-1,1.3024606E1,-3.6426422E1,1.5636486E1,-1.4432325E1,-2.332415E1,-4.7119728E1,1.0655011E1,2.1457706E1,2.8833506E0,-2.2928425E1,-1.6086071E1,-3.1296618E1,-4.0593723E1,-5.202953E1,1.2024783E1,-7.7785864E0,1.8549618E1,2.3923931E1,9.521777E0,-7.2185774E0,-1.6659256E1,-3.1567356E1,-1.2107641E1,-2.9474915E1,-1.4842968E1,-3.322157E1,-3.848288E1,-1.4655844E0,-4.8421337E1,-1.63838E0,4.1298488E-1,-2.5112312E-2,4.1117904E-1,-3.8765952E-1,6.6738856E-1,3.5114592E-1,7.694467E-1,6.699875E-1,5.082012E-1,1.02617E-2,-2.768396E-1,1.1363023E-1,-2.0897266E-1,-6.4035255E-1,-6.653705E-1,-1.046222E0,2.5569034E-1,-4.398088E-1,-9.225E-1,8.218595E-2,-7.016919E-1,-1.19538635E-1,-9.380683E-1,-1.3147215E0,-9.1867286E-1,-1.2060064E0,-1.4049084E0,-1.5567894E0],"categories":[],"categories_nodes":[],"categories_segments":[],"categories_sizes":[],"default_left":[0,0,0,0,0,0,0,0,0,0,0,0,0,0,0,0,0,0,0,0,0,0,0,0,0,0,0,0,0,0,0,0,0,0,0,0,0,0,0,0,0,0,0,0,0,0,0,0,0,0,0,0,0,0,0,0,0,0,0],"id":13,"left_children":[1,3,5,7,9,11,13,15,17,19,21,23,25,27,29,31,33,35,37,39,41,43,45,47,49,51,53,55,-1,57,-1,-1,-1,-1,-1,-1,-1,-1,-1,-1,-1,-1,-1,-1,-1,-1,-1,-1,-1,-1,-1,-1,-1,-1,-1,-1,-1,-1,-1],"loss_changes":[6.234428E6,7.023796E5,4.81848E5,2.5904475E5,1.2526156E5,8.8997625E4,5.86705E4,1.21797625E5,2.9119125E4,1.891285E4,3.0398844E4,4.3055375E4,2.28495E4,1.239825E4,7.4125E3,1.00508625E5,3.7085312E4,4.7713688E4,5.53675E3,1.1570795E4,2.5119526E3,1.4976875E4,6.646172E3,3.3302562E4,7.724422E3,7.238295E3,1.227275E4,7.6378125E3,0E0,1.0525E2,0E0,0E0,0E0,0E0,0E0,0E0,0E0,0E0,0E0,0E0,0E0,0E0,0E0,0E0,0E0,0E0,0E0,0E0,0E0,0E0,0E0,0E0,0E0,0E0,0E0,0E0,0E0,0E0,0E0],"parents":[2147483647,0,0,1,1,2,2,3,3,4,4,5,5,6,6,7,7,8,8,9,9,10,10,11,11,12,12,13,13,14,14,15,15,16,16,17,17,18,18,19,19,20,20,21,21,22,22,23,23,24,24,25,25,26,26,27,27,29,29],"right_children":[2,4,6,8,10,12,14,16,18,20,22,24,26,28,30,32,34,36,38,40,42,44,46,48,50,52,54,56,-1,58,-1,-1,-1,-1,-1,-1,-1,-1,-1,-1,-1,-1,-1,-1,-1,-1,-1,-1,-1,-1,-1,-1,-1,-1,-1,-1,-1,-1,-1],"split_conditions":[1.41245E3,9.07564E3,1.417029E3,2.334182E1,1.588678E3,6.42952E2,4.7907E1,8.147347E3,5.22103E2,8.42067E0,9.09374E3,8.151642E3,1.592023E3,9.11312E3,8.50097E0,8.45212E0,6.42442E2,8.141885E3,4.7215E1,8.155649E3,3.7825477E-1,8.43911E0,1.406267E3,6.42722E2,3.012216E-3,5.3825673E-2,8.169769E3,4.7788E1,-1.4655844E0,3.955E2,-1.63838E0,4.1298488E-1,-2.5112312E-2,4.1117904E-1,-3.8765952E-1,6.6738856E-1,3.5114592E-1,7.694467E-1,6.699875E-1,5.082012E-1,1.02617E-2,-2.768396E-1,1.1363023E-1,-2.0897266E-1,-6.4035255E-1,-6.653705E-1,-1.046222E0,2.5569034E-1,-4.398088E-1,-9.225E-1,8.218595E-2,-7.016919E-1,-1.19538635E-1,-9.380683E-1,-1.3147215E0,-9.1867286E-1,-1.2060064E0,-1.4049084E0,-1.5567894E0],"split_indices":[27,8,27,49,25,23,35,41,37,43,8,41,25,8,43,43,23,41,35,41,24,43,27,23,18,50,41,35,0,45,0,0,0,0,0,0,0,0,0,0,0,0,0,0,0,0,0,0,0,0,0,0,0,0,0,0,0,0,0],"split_type":[0,0,0,0,0,0,0,0,0,0,0,0,0,0,0,0,0,0,0,0,0,0,0,0,0,0,0,0,0,0,0,0,0,0,0,0,0,0,0,0,0,0,0,0,0,0,0,0,0,0,0,0,0,0,0,0,0,0,0],"sum_hessian":[1.3236E4,9.79E3,3.446E3,8.94E3,8.5E2,1.55E3,1.896E3,4.819E3,4.121E3,2.8E2,5.7E2,8.14E2,7.36E2,8.18E2,1.078E3,4.486E3,3.33E2,1.895E3,2.226E3,1.69E2,1.11E2,3.32E2,2.38E2,6.29E2,1.85E2,7.8E1,6.58E2,6.56E2,1.62E2,4.58E2,6.2E2,3.951E3,5.35E2,6.4E1,2.69E2,1.229E3,6.66E2,1.061E3,1.165E3,9.3E1,7.6E1,9.4E1,1.7E1,1.09E2,2.23E2,6.4E1,1.74E2,6.9E1,5.6E2,1.78E2,7E0,4.3E1,3.5E1,5.59E2,9.9E1,1.21E2,5.35E2,3.24E2,1.34E2],"tree_param":{"num_deleted":"0","num_feature":"51","num_nodes":"59","size_leaf_vector":"1"}},{"base_weights":[-3.5441765E-1,1.2240342E1,-3.5309597E1,1.4430257E1,-2.1192553E1,-1.951847E1,-4.3540913E1,9.733931E0,2.0823162E1,-8.921239E0,-2.6282204E1,-2.5125618E1,-8.911871E0,-3.667748E1,-4.99655E1,1.167106E1,-8.04611E0,1.77495E1,2.3177296E1,-1.6273978E0,-1.6034912E1,-2.1120245E1,-3.4130497E1,-1.9884415E1,-3.027713E1,-3.7672927E0,-2.159337E1,-3.4545853E1,-4.4344204E1,-4.674172E1,-1.5962542E0,3.904098E-1,-1.8856455E-1,-5.113755E-1,2.3559442E-1,6.468457E-1,3.9551046E-1,7.4026436E-1,6.4396316E-1,3.384558E-2,-2.8751332E-1,-6.014264E-1,-3.4152776E-1,-4.496111E-1,-7.193563E-1,-9.12798E-1,-1.2068602E0,4.035035E-1,-6.316213E-1,-6.4759296E-1,-9.5834404E-1,1.5111285E-1,-2.9997012E-1,-2.6415828E-1,-8.071774E-1,-9.123871E-1,-1.1605455E0,-1.2492678E0,-1.4480262E0,-1.3544555E0,-1.5388404E0],"categories":[],"categories_nodes":[],"categories_segments":[],"categories_sizes":[],"default_left":[0,0,0,0,0,0,0,0,0,0,0,0,0,0,0,0,0,0,0,0,0,0,0,0,0,0,0,0,0,0,0,0,0,0,0,0,0,0,0,0,0,0,0,0,0,0,0,0,0,0,0,0,0,0,0,0,0,0,0,0,0],"id":14,"left_children":[1,3,5,7,9,11,13,15,17,19,21,23,25,27,29,31,33,35,37,39,41,43,45,47,49,51,53,55,57,59,-1,-1,-1,-1,-1,-1,-1,-1,-1,-1,-1,-1,-1,-1,-1,-1,-1,-1,-1,-1,-1,-1,-1,-1,-1,-1,-1,-1,-1,-1,-1],"loss_changes":[5.860628E6,7.167895E5,4.574655E5,2.7556E5,3.7364438E4,7.173816E4,1.00335E5,1.8253447E5,2.772875E4,9.209613E3,1.6497E4,2.0755094E4,2.731986E4,1.6837125E4,9.996E3,1.1524794E5,7.4683336E4,2.9147625E4,5.11E3,1.9620901E3,1.4512969E3,4.181039E3,2.5480156E3,1.5683859E4,5.0642188E3,1.6510287E4,7.983496E3,1.39455E4,5.4478125E2,2.087125E3,0E0,0E0,0E0,0E0,0E0,0E0,0E0,0E0,0E0,0E0,0E0,0E0,0E0,0E0,0E0,0E0,0E0,0E0,0E0,0E0,0E0,0E0,0E0,0E0,0E0,0E0,0E0,0E0,0E0,0E0,0E0],"parents":[2147483647,0,0,1,1,2,2,3,3,4,4,5,5,6,6,7,7,8,8,9,9,10,10,11,11,12,12,13,13,14,14,15,15,16,16,17,17,18,18,19,19,20,20,21,21,22,22,23,23,24,24,25,25,26,26,27,27,28,28,29,29],"right_children":[2,4,6,8,10,12,14,16,18,20,22,24,26,28,30,32,34,36,38,40,42,44,46,48,50,52,54,56,58,60,-1,-1,-1,-1,-1,-1,-1,-1,-1,-1,-1,-1,-1,-1,-1,-1,-1,-1,-1,-1,-1,-1,-1,-1,-1,-1,-1,-1,-1,-1,-1],"split_conditions":[4.765E1,9.08049E3,1.594359E3,2.334923E1,4.7425E1,2.3247E1,8.48846E0,8.147452E3,3.897E1,8.162903E3,8.1752E3,6.42965E2,8.140332E3,8.169769E3,1.599017E3,8.45485E0,3.8869E1,8.141607E3,4.7231E1,4.6438255E0,3.8908E1,8.44457E0,9.12691E3,1.59E3,1.592279E3,6.42826E2,8.113089E-2,6.4309E2,9.13646E3,4.8005E1,-1.5962542E0,3.904098E-1,-1.8856455E-1,-5.113755E-1,2.3559442E-1,6.468457E-1,3.9551046E-1,7.4026436E-1,6.4396316E-1,3.384558E-2,-2.8751332E-1,-6.014264E-1,-3.4152776E-1,-4.496111E-1,-7.193563E-1,-9.12798E-1,-1.2068602E0,4.035035E-1,-6.316213E-1,-6.4759296E-1,-9.5834404E-1,1.5111285E-1,-2.9997012E-1,-2.6415828E-1,-8.071774E-1,-9.123871E-1,-1.1605455E0,-1.2492678E0,-1.4480262E0,-1.3544555E0,-1.5388404E0],"split_indices":[35,8,25,49,35,49,43,41,47,41,12,23,41,41,25,43,47,41,35,28,47,43,8,25,25,23,36,23,8,35,0,0,0,0,0,0,0,0,0,0,0,0,0,0,0,0,0,0,0,0,0,0,0,0,0,0,0,0,0,0,0],"split_type":[0,0,0,0,0,0,0,0,0,0,0,0,0,0,0,0,0,0,0,0,0,0,0,0,0,0,0,0,0,0,0,0,0,0,0,0,0,0,0,0,0,0,0,0,0,0,0,0,0,0,0,0,0,0,0,0,0,0,0,0,0],"sum_hessian":[1.331E4,9.785E3,3.525E3,9.184E3,6.01E2,1.209E3,2.316E3,5.296E3,3.888E3,1.77E2,4.24E2,7.9E2,4.19E2,1.123E3,1.193E3,4.776E3,5.2E2,1.69E3,2.198E3,8.8E1,8.9E1,2.58E2,1.66E2,3.94E2,3.96E2,2.99E2,1.2E2,8.83E2,2.4E2,6.06E2,5.87E2,4.444E3,3.32E2,3.32E2,1.88E2,9.19E2,7.71E2,1.165E3,1.033E3,6.6E1,2.2E1,4.6E1,4.3E1,8.4E1,1.74E2,1.07E2,5.9E1,1.3E1,3.81E2,6.6E1,3.3E2,1.24E2,1.75E2,3.6E1,8.4E1,4.46E2,4.37E2,1.49E2,9.1E1,4.57E2,1.49E2],"tree_param":{"num_deleted":"0","num_feature":"51","num_nodes":"61","size_leaf_vector":"1"}},{"base_weights":[2.1180775E-2,1.2355594E1,-3.3761066E1,1.4408708E1,-1.7932047E1,-1.891768E1,-4.241733E1,1.7241024E1,4.1281104E0,-2.2326715E0,-2.2837528E1,-2.2347468E-1,-2.180494E1,-3.583257E1,-4.8317673E1,2.1773499E1,1.4159832E1,9.82211E0,-4.7099595E0,6.375928E0,-8.51301E0,-1.9472565E1,-3.1581556E1,7.906068E0,-2.0868042E1,-1.760533E1,-2.9281565E1,-3.37889E1,-4.358977E1,-4.467542E1,-5.112816E1,6.642686E-1,3.8103518E-1,6.143515E-1,3.588504E-1,-8.925827E-2,3.9931563E-1,-3.6302686E-3,-5.04285E-1,3.4518772E-1,-1.3297945E-1,-7.772017E-2,-4.4849846E-1,-8.079671E-1,-4.802374E-1,-7.9814607E-1,-1.0379076E0,-2.4606548E-1,6.218007E-1,2.9236197E-1,-7.5792265E-1,-4.3250778E-1,-9.032712E-1,-9.3433213E-1,-6.234933E-1,-9.3018556E-1,-1.1669595E0,-1.2189898E0,-1.4097089E0,-1.3101311E0,-1.4736351E0,-1.4844686E0,-1.6079944E0],"categories":[],"categories_nodes":[],"categories_segments":[],"categories_sizes":[],"default_left":[0,0,0,0,0,0,0,0,0,0,0,0,0,0,0,0,0,0,0,0,0,0,0,0,0,0,0,0,0,0,0,0,0,0,0,0,0,0,0,0,0,0,0,0,0,0,0,0,0,0,0,0,0,0,0,0,0,0,0,0,0,0,0],"id":15,"left_children":[1,3,5,7,9,11,13,15,17,19,21,23,25,27,29,31,33,35,37,39,41,43,45,47,49,51,53,55,57,59,61,-1,-1,-1,-1,-1,-1,-1,-1,-1,-1,-1,-1,-1,-1,-1,-1,-1,-1,-1,-1,-1,-1,-1,-1,-1,-1,-1,-1,-1,-1,-1,-1],"loss_changes":[5.524399E6,6.04189E5,4.54817E5,2.6478525E5,4.7466016E4,7.059441E4,8.5259E4,9.927925E4,9.898319E4,8.0558857E3,1.3214E4,2.970322E4,3.50595E4,1.536325E4,9.7745E3,9.367875E3,5.8756125E4,5.3432086E4,4.2807117E4,3.5444517E3,3.2397378E3,8.407922E3,1.01539844E3,2.6397766E4,6.975115E3,2.8589016E4,5.7802188E3,1.0808875E4,2.825625E2,1.8125E2,2.45E1,0E0,0E0,0E0,0E0,0E0,0E0,0E0,0E0,0E0,0E0,0E0,0E0,0E0,0E0,0E0,0E0,0E0,0E0,0E0,0E0,0E0,0E0,0E0,0E0,0E0,0E0,0E0,0E0,0E0,0E0,0E0,0E0],"parents":[2147483647,0,0,1,1,2,2,3,3,4,4,5,5,6,6,7,7,8,8,9,9,10,10,11,11,12,12,13,13,14,14,15,15,16,16,17,17,18,18,19,19,20,20,21,21,22,22,23,23,24,24,25,25,26,26,27,27,28,28,29,29,30,30],"right_children":[2,4,6,8,10,12,14,16,18,20,22,24,26,28,30,32,34,36,38,40,42,44,46,48,50,52,54,56,58,60,62,-1,-1,-1,-1,-1,-1,-1,-1,-1,-1,-1,-1,-1,-1,-1,-1,-1,-1,-1,-1,-1,-1,-1,-1,-1,-1,-1,-1,-1,-1,-1,-1],"split_conditions":[8.45557E0,9.07904E3,1.594481E3,3.932E2,1.588678E3,1.590899E3,8.48846E0,3.922E2,8.139562E3,8.15997E3,9.10508E3,8.138846E3,6.42974E2,8.171567E3,1.423047E3,4.299871E-2,8.132867E3,5.53075E2,6.4282E2,8.42457E0,8.42129E0,2.326147E1,1.407513E3,-2.8571429E-5,2.5596008E-1,8.151399E3,2.324189E1,6.43153E2,9.13646E3,9.12287E3,3.959E2,6.642686E-1,3.8103518E-1,6.143515E-1,3.588504E-1,-8.925827E-2,3.9931563E-1,-3.6302686E-3,-5.04285E-1,3.4518772E-1,-1.3297945E-1,-7.772017E-2,-4.4849846E-1,-8.079671E-1,-4.802374E-1,-7.9814607E-1,-1.0379076E0,-2.4606548E-1,6.218007E-1,2.9236197E-1,-7.5792265E-1,-4.3250778E-1,-9.032712E-1,-9.3433213E-1,-6.234933E-1,-9.3018556E-1,-1.1669595E0,-1.2189898E0,-1.4097089E0,-1.3101311E0,-1.4736351E0,-1.4844686E0,-1.6079944E0],"split_indices":[43,8,25,45,25,25,43,45,41,12,8,41,23,41,27,40,41,29,23,43,43,49,27,19,24,41,49,23,8,8,45,0,0,0,0,0,0,0,0,0,0,0,0,0,0,0,0,0,0,0,0,0,0,0,0,0,0,0,0,0,0,0,0],"split_type":[0,0,0,0,0,0,0,0,0,0,0,0,0,0,0,0,0,0,0,0,0,0,0,0,0,0,0,0,0,0,0,0,0,0,0,0,0,0,0,0,0,0,0,0,0,0,0,0,0,0,0,0,0,0,0,0,0,0,0,0,0,0,0],"sum_hessian":[1.3256E4,9.711E3,3.545E3,9.095E3,6.16E2,1.307E3,2.238E3,7.13E3,1.965E3,1.47E2,4.69E2,1.75E2,1.132E3,1.061E3,1.177E3,2.883E3,4.247E3,1.195E3,7.7E2,6.2E1,8.5E1,3.41E2,1.28E2,1.26E2,4.9E1,7.27E2,4.05E2,8.44E2,2.17E2,5.2E2,6.57E2,2.769E3,1.14E2,1.094E3,3.153E3,2.56E2,9.39E2,5.59E2,2.11E2,4.2E1,2E1,4.5E1,4E1,1.06E2,2.35E2,5.2E1,7.6E1,5.6E1,7E1,6E0,4.3E1,5.81E2,1.46E2,3.3E2,7.5E1,5.51E2,2.93E2,1.23E2,9.4E1,4.33E2,8.7E1,4.07E2,2.5E2],"tree_param":{"num_deleted":"0","num_feature":"51","num_nodes":"63","size_leaf_vector":"1"}},{"base_weights":[-1.2515116E-1,1.1774077E1,-3.3447056E1,1.44074335E1,-1.3033128E1,-4.319367E1,-2.2093578E1,3.983366E0,1.6696253E1,2.5775301E0,-2.1860853E1,-3.7394848E1,-4.7816807E1,-2.5632692E1,-8.748897E0,8.877286E0,-7.468139E0,1.3795341E1,2.1303656E1,1.125506E1,-5.8139443E0,-1.8799776E1,-3.4553898E1,-3.582653E1,-1.3496996E0,-4.4323242E1,-1.5008118E0,-2.3352716E1,-3.4634193E1,-2.762428E0,-2.4554369E1,5.6820816E-1,1.5775533E-1,-4.5656722E-2,-4.1464266E-1,6.1928356E-1,3.231528E-1,3.4716794E-1,6.5336215E-1,5.227724E-1,3.1555057E-2,-4.731787E-2,-4.9509463E-1,-6.3843817E-1,-4.0781066E-1,-9.0423906E-1,-1.202556E0,-8.1106746E-1,-1.1321334E0,-1.2688237E0,-1.446064E0,-8.3715135E-1,-5.185516E-1,-9.092176E-1,-1.1391596E0,-2.861998E-1,2.0416877E-1,-4.6407875E-1,-9.7190094E-1],"categories":[],"categories_nodes":[],"categories_segments":[],"categories_sizes":[],"default_left":[0,0,0,0,0,0,0,0,0,0,0,0,0,0,0,0,0,0,0,0,0,0,0,0,0,0,0,0,0,0,0,0,0,0,0,0,0,0,0,0,0,0,0,0,0,0,0,0,0,0,0,0,0,0,0,0,0,0,0],"id":16,"left_children":[1,3,5,7,9,11,13,15,17,19,21,23,25,27,29,31,33,35,37,39,41,43,45,47,-1,49,-1,51,53,55,57,-1,-1,-1,-1,-1,-1,-1,-1,-1,-1,-1,-1,-1,-1,-1,-1,-1,-1,-1,-1,-1,-1,-1,-1,-1,-1,-1,-1],"loss_changes":[5.245362E6,6.3698775E5,3.8424575E5,2.1020125E5,1.2904331E5,4.8398E4,7.5813375E4,8.906219E4,9.6286375E4,2.475049E4,2.2585312E4,8.334375E3,5.79775E3,2.5296688E4,3.2008004E4,4.0431047E4,1.796139E4,9.164044E4,1.2646875E4,1.0496141E4,7.8085835E3,5.9634688E3,1.598625E3,1.06905E4,0E0,1.1961875E3,0E0,2.7636875E4,2.5319688E3,1.608241E4,6.124922E3,0E0,0E0,0E0,0E0,0E0,0E0,0E0,0E0,0E0,0E0,0E0,0E0,0E0,0E0,0E0,0E0,0E0,0E0,0E0,0E0,0E0,0E0,0E0,0E0,0E0,0E0,0E0,0E0],"parents":[2147483647,0,0,1,1,2,2,3,3,4,4,5,5,6,6,7,7,8,8,9,9,10,10,11,11,12,12,13,13,14,14,15,15,16,16,17,17,18,18,19,19,20,20,21,21,22,22,23,23,25,25,27,27,28,28,29,29,30,30],"right_children":[2,4,6,8,10,12,14,16,18,20,22,24,26,28,30,32,34,36,38,40,42,44,46,48,-1,50,-1,52,54,56,58,-1,-1,-1,-1,-1,-1,-1,-1,-1,-1,-1,-1,-1,-1,-1,-1,-1,-1,-1,-1,-1,-1,-1,-1,-1,-1,-1,-1],"split_conditions":[4.765E1,9.072608E3,2.319771E1,3.881333E1,8.4291E0,6.43293E2,2.325154E1,9.06078E3,3.8947E1,9.076846E3,9.11005E3,8.18929E3,8.50001E0,9.08474E3,9.063662E3,1.408933E3,2.9718867E-1,9.053567E3,2.3343025E1,8.41743E0,8.16764E3,1.121705E-1,8.45245E0,4.7778E1,-1.3496996E0,4.1895385E0,-1.5008118E0,5.20914E2,8.169E3,5.211E2,5.3695768E-2,5.6820816E-1,1.5775533E-1,-4.5656722E-2,-4.1464266E-1,6.1928356E-1,3.231528E-1,3.4716794E-1,6.5336215E-1,5.227724E-1,3.1555057E-2,-4.731787E-2,-4.9509463E-1,-6.3843817E-1,-4.0781066E-1,-9.0423906E-1,-1.202556E0,-8.1106746E-1,-1.1321334E0,-1.2688237E0,-1.446064E0,-8.3715135E-1,-5.185516E-1,-9.092176E-1,-1.1391596E0,-2.861998E-1,2.0416877E-1,-4.6407875E-1,-9.7190094E-1],"split_indices":[35,33,49,47,43,23,49,33,47,33,8,12,43,8,33,27,38,33,49,43,12,36,43,35,0,42,0,37,12,10,50,0,0,0,0,0,0,0,0,0,0,0,0,0,0,0,0,0,0,0,0,0,0,0,0,0,0,0,0],"split_type":[0,0,0,0,0,0,0,0,0,0,0,0,0,0,0,0,0,0,0,0,0,0,0,0,0,0,0,0,0,0,0,0,0,0,0,0,0,0,0,0,0,0,0,0,0,0,0,0,0,0,0,0,0,0,0,0,0,0,0],"sum_hessian":[1.3227E4,9.747E3,3.48E3,8.812E3,9.35E2,1.871E3,1.609E3,1.587E3,7.225E3,3.38E2,5.97E2,8.34E2,1.037E3,1.271E3,3.38E2,1.112E3,4.75E2,4.436E3,2.789E3,1.66E2,1.72E2,4.83E2,1.14E2,6.96E2,1.38E2,4.1E2,6.27E2,1.017E3,2.54E2,2.46E2,9.2E1,2.93E2,8.19E2,2.46E2,2.29E2,1.357E3,3.079E3,1.31E2,2.658E3,1.03E2,6.3E1,1.24E2,4.8E1,3.25E2,1.58E2,6.7E1,4.7E1,1.27E2,5.69E2,2.77E2,1.33E2,5.79E2,4.38E2,1.15E2,1.39E2,1.44E2,1.02E2,4.4E1,4.8E1],"tree_param":{"num_deleted":"0","num_feature":"51","num_nodes":"59","size_leaf_vector":"1"}},{"base_weights":[-7.6633655E-2,1.0636294E1,-3.4637863E1,1.3128335E1,-1.4578191E1,-2.4651169E1,-4.2943726E1,-3.9952973E-1,1.5707459E1,9.953946E-1,-2.2137587E1,-1.0133091E1,-2.6797293E1,-3.8454197E1,-4.7462063E1,9.924043E0,-4.6094303E0,1.22056055E1,2.010783E1,9.098297E0,-7.9704585E0,-1.947115E1,-3.42637E1,1.25810175E1,-1.57055E1,-2.4072548E1,-3.5482784E1,-3.717589E1,-1.3296503E0,-1.3691951E0,-1.5127527E0,3.9884055E-1,-1.0204182E-1,-5.4349375E-1,-6.77947E-2,5.552042E-1,2.7145654E-1,6.6315615E-1,5.488103E-1,3.57152E-1,-1.8592937E-1,-1.04035825E-1,-4.8557642E-1,-7.4146324E-1,-5.0537133E-1,-1.1054229E0,-7.642009E-1,5.7068247E-1,-5.323182E-1,4.3275392E-1,-5.681103E-1,-8.9933586E-1,-6.37427E-1,-9.7221917E-1,-1.2446516E0,-1.3004054E0,-1.0686653E0],"categories":[],"categories_nodes":[],"categories_segments":[],"categories_sizes":[],"default_left":[0,0,0,0,0,0,0,0,0,0,0,0,0,0,0,0,0,0,0,0,0,0,0,0,0,0,0,0,0,0,0,0,0,0,0,0,0,0,0,0,0,0,0,0,0,0,0,0,0,0,0,0,0,0,0,0,0],"id":17,"left_children":[1,3,5,7,9,11,13,15,17,19,21,23,25,27,29,31,33,35,37,39,41,43,45,47,49,51,53,55,-1,-1,-1,-1,-1,-1,-1,-1,-1,-1,-1,-1,-1,-1,-1,-1,-1,-1,-1,-1,-1,-1,-1,-1,-1,-1,-1,-1,-1],"loss_changes":[4.8991725E6,6.348929E5,2.58652E5,3.2075038E5,1.070358E5,4.4096812E4,3.2822E4,6.4064113E4,1.18731E5,2.1722049E4,1.9120938E4,2.3613467E4,2.8491438E4,4.817625E3,2.27175E3,1.9224047E4,3.318687E4,8.541319E4,1.1988125E4,6.8141357E3,5.1965557E3,6.5230156E3,1.5369609E3,7.565312E3,1.4780918E4,1.516125E4,4.0857188E3,5.301625E3,0E0,0E0,0E0,0E0,0E0,0E0,0E0,0E0,0E0,0E0,0E0,0E0,0E0,0E0,0E0,0E0,0E0,0E0,0E0,0E0,0E0,0E0,0E0,0E0,0E0,0E0,0E0,0E0,0E0],"parents":[2147483647,0,0,1,1,2,2,3,3,4,4,5,5,6,6,7,7,8,8,9,9,10,10,11,11,12,12,13,13,14,14,15,15,16,16,17,17,18,18,19,19,20,20,21,21,22,22,23,23,24,24,25,25,26,26,27,27],"right_children":[2,4,6,8,10,12,14,16,18,20,22,24,26,28,30,32,34,36,38,40,42,44,46,48,50,52,54,56,-1,-1,-1,-1,-1,-1,-1,-1,-1,-1,-1,-1,-1,-1,-1,-1,-1,-1,-1,-1,-1,-1,-1,-1,-1,-1,-1,-1,-1],"split_conditions":[6.42896E2,9.073461E3,1.417999E3,3.8798E1,8.4291E0,3.9355554E2,1.422084E3,3.932857E2,2.335576E1,9.078602E3,9.104397E3,8.44872E0,9.087991E3,8.18355E3,1.425703E3,9.06078E3,5.52885E2,9.053412E3,2.388021E3,1.404016E3,8.16764E3,-2.7777778E-4,2.33015E1,4.9230657E0,1.4955119E-3,5.20749E2,9.12287E3,5.20342E2,-1.3296503E0,-1.3691951E0,-1.5127527E0,3.9884055E-1,-1.0204182E-1,-5.4349375E-1,-6.77947E-2,5.552042E-1,2.7145654E-1,6.6315615E-1,5.488103E-1,3.57152E-1,-1.8592937E-1,-1.04035825E-1,-4.8557642E-1,-7.4146324E-1,-5.0537133E-1,-1.1054229E0,-7.642009E-1,5.7068247E-1,-5.323182E-1,4.3275392E-1,-5.681103E-1,-8.9933586E-1,-6.37427E-1,-9.7221917E-1,-1.2446516E0,-1.3004054E0,-1.0686653E0],"split_indices":[23,33,27,47,43,45,27,45,49,33,33,43,33,12,27,33,29,33,39,27,12,17,49,34,18,37,8,37,0,0,0,0,0,0,0,0,0,0,0,0,0,0,0,0,0,0,0,0,0,0,0,0,0,0,0,0,0],"split_type":[0,0,0,0,0,0,0,0,0,0,0,0,0,0,0,0,0,0,0,0,0,0,0,0,0,0,0,0,0,0,0,0,0,0,0,0,0,0,0,0,0,0,0,0,0,0,0,0,0,0,0,0,0,0,0,0,0],"sum_hessian":[1.323E4,1.01E4,3.13E3,9.192E3,9.08E2,1.423E3,1.707E3,1.472E3,7.72E3,2.97E2,6.11E2,1.84E2,1.239E3,8.61E2,8.46E2,4.26E2,1.046E3,4.301E3,3.419E3,1.56E2,1.41E2,5.03E2,1.08E2,3.6E1,1.48E2,9.46E2,2.93E2,7.13E2,1.48E2,5.34E2,3.12E2,3.4E2,8.6E1,1.54E2,8.92E2,1.434E3,2.867E3,1.622E3,1.797E3,1.32E2,2.4E1,9.2E1,4.9E1,1.65E2,3.38E2,8.1E1,2.7E1,3E1,6E0,1.4E1,1.34E2,3.03E2,6.43E2,1.98E2,9.5E1,1.38E2,5.75E2],"tree_param":{"num_deleted":"0","num_feature":"51","num_nodes":"57","size_leaf_vector":"1"}},{"base_weights":[1.6535407E-2,1.0569726E1,-3.3073483E1,1.2574554E1,-1.7648085E1,-2.2227161E1,-4.1045853E1,1.6407223E1,3.5591722E0,-1.3874465E0,-2.2167448E1,-1.860853E1,-3.4020027E1,-3.5864338E1,-4.534625E1,2.037129E1,1.3975382E1,5.494613E0,-1.6601065E1,7.2053084E0,-5.4980946E0,-1.9153553E1,-3.2513733E1,-1.9865845E1,1.2010047E1,-3.037454E1,-3.9182148E1,-3.4551373E1,-1.301507E0,-4.2946728E1,-1.4364122E0,6.1688495E-1,1.8618357E-1,6.5989274E-1,3.6810124E-1,3.149971E-1,-3.4345604E-2,3.4264034E-1,-5.5386263E-1,4.1843706E-1,-6.3837804E-2,-3.0201705E-2,-3.1028315E-1,-4.8532328E-1,-7.119368E-1,-7.98566E-1,-1.0827434E0,-3.983551E-1,-6.868933E-1,6.3769025E-1,-1.8151115E-1,-7.593791E-1,-9.666578E-1,-9.135189E-1,-1.2097123E0,-3.102015E-1,-1.0442021E0,-1.251874E0,-1.427324E0],"categories":[],"categories_nodes":[],"categories_segments":[],"categories_sizes":[],"default_left":[0,0,0,0,0,0,0,0,0,0,0,0,0,0,0,0,0,0,0,0,0,0,0,0,0,0,0,0,0,0,0,0,0,0,0,0,0,0,0,0,0,0,0,0,0,0,0,0,0,0,0,0,0,0,0,0,0,0,0],"id":18,"left_children":[1,3,5,7,9,11,13,15,17,19,21,23,25,27,29,31,33,35,37,39,41,43,45,47,49,51,53,55,-1,57,-1,-1,-1,-1,-1,-1,-1,-1,-1,-1,-1,-1,-1,-1,-1,-1,-1,-1,-1,-1,-1,-1,-1,-1,-1,-1,-1,-1,-1],"loss_changes":[4.655954E6,5.721071E5,2.7787E5,3.2608688E5,4.9279484E4,5.7745E4,3.975225E4,6.3561E4,1.100076E5,5.2319185E3,1.5748125E4,4.0622094E4,4.8317812E3,6.863125E3,4.091375E3,6.698875E3,5.5921812E4,8.545269E4,1.3092008E4,3.0503303E3,2.165513E3,5.1881562E3,1.5068281E3,1.9819281E4,7.1422715E3,9.798125E2,5.796875E1,4.128625E3,0E0,9.973125E2,0E0,0E0,0E0,0E0,0E0,0E0,0E0,0E0,0E0,0E0,0E0,0E0,0E0,0E0,0E0,0E0,0E0,0E0,0E0,0E0,0E0,0E0,0E0,0E0,0E0,0E0,0E0,0E0,0E0],"parents":[2147483647,0,0,1,1,2,2,3,3,4,4,5,5,6,6,7,7,8,8,9,9,10,10,11,11,12,12,13,13,14,14,15,15,16,16,17,17,18,18,19,19,20,20,21,21,22,22,23,23,24,24,25,25,26,26,27,27,29,29],"right_children":[2,4,6,8,10,12,14,16,18,20,22,24,26,28,30,32,34,36,38,40,42,44,46,48,50,52,54,56,-1,58,-1,-1,-1,-1,-1,-1,-1,-1,-1,-1,-1,-1,-1,-1,-1,-1,-1,-1,-1,-1,-1,-1,-1,-1,-1,-1,-1,-1,-1],"split_conditions":[6.42884E2,9.07904E3,4.7794E1,1.589778E3,1.588678E3,8.161092E3,4.7923E1,3.921E2,8.147347E3,9.08133E3,9.11005E3,5.21321E2,5.9672294E0,9.11602E3,4.8015E1,8.153522E3,8.130275E3,3.934E2,2.388043E3,8.819171E-1,4.7345E1,6.42714E2,4.7522E1,1.592594E3,4.7586E1,1.59364E3,9.11005E3,1.4298407E-2,-1.301507E0,8.193305E3,-1.4364122E0,6.1688495E-1,1.8618357E-1,6.5989274E-1,3.6810124E-1,3.149971E-1,-3.4345604E-2,3.4264034E-1,-5.5386263E-1,4.1843706E-1,-6.3837804E-2,-3.0201705E-2,-3.1028315E-1,-4.8532328E-1,-7.119368E-1,-7.98566E-1,-1.0827434E0,-3.983551E-1,-6.868933E-1,6.3769025E-1,-1.8151115E-1,-7.593791E-1,-9.666578E-1,-9.135189E-1,-1.2097123E0,-3.102015E-1,-1.0442021E0,-1.251874E0,-1.427324E0],"split_indices":[23,8,35,25,25,41,35,45,41,8,8,37,34,8,35,41,41,45,39,46,35,23,35,25,35,25,8,40,0,41,0,0,0,0,0,0,0,0,0,0,0,0,0,0,0,0,0,0,0,0,0,0,0,0,0,0,0,0,0],"split_type":[0,0,0,0,0,0,0,0,0,0,0,0,0,0,0,0,0,0,0,0,0,0,0,0,0,0,0,0,0,0,0,0,0,0,0,0,0,0,0,0,0,0,0,0,0,0,0,0,0,0,0,0,0,0,0,0,0,0,0],"sum_hessian":[1.3331E4,1.0108E4,3.223E3,9.438E3,6.7E2,1.367E3,1.856E3,6.622E3,2.816E3,1.46E2,5.24E2,1.048E3,3.19E2,8.46E2,1.01E3,2.515E3,4.107E3,2.57E3,2.46E2,4.7E1,9.9E1,4.08E2,1.16E2,1.007E3,4.1E1,1.91E2,1.28E2,7.25E2,1.21E2,5.28E2,4.82E2,2.481E3,3.4E1,7.18E2,3.389E3,1.465E3,1.105E3,1.5E1,2.31E2,2.7E1,2E1,5.2E1,4.7E1,2.5E2,1.58E2,4.7E1,6.9E1,3.19E2,6.88E2,2.7E1,1.4E1,5.5E1,1.36E2,1.8E1,1.1E2,8E0,7.17E2,4.26E2,1.02E2],"tree_param":{"num_deleted":"0","num_feature":"51","num_nodes":"59","size_leaf_vector":"1"}},{"base_weights":[1.5855381E-1,1.0919112E1,-3.0583712E1,1.2957362E1,-1.3271383E1,-2.0084852E1,-3.9590523E1,3.9278884E0,1.5648439E1,1.0218733E-1,-2.0292044E1,-2.2914137E1,-6.5319786E0,-3.341024E1,-4.322101E1,8.348031E0,-7.0809226E0,1.2515471E1,1.9274511E1,3.7439415E0,-1.4816963E1,-1.696449E1,-2.9657873E1,-2.0581038E1,-3.1662647E1,2.10889E0,-1.4700889E1,-2.4612482E1,-3.455819E1,-4.0968075E1,-1.3974696E0,3.61931E-1,-7.731812E-2,4.3442738E-1,-2.6721853E-1,4.248125E-1,5.395216E-3,3.688851E-1,5.943665E-1,3.044079E-1,-3.3456888E-2,-3.3173013E-1,-6.571869E-1,-4.0228024E-1,-6.492814E-1,-7.2513723E-1,-1.0044985E0,-5.0057715E-1,-8.527412E-1,-8.8571763E-1,-1.1960652E0,6.0099185E-1,-8.306317E-2,1.5095468E-1,-5.5671173E-1,-8.297072E-1,-3.3498216E-1,-3.126031E-1,-1.044673E0,-1.1973796E0,-1.389135E0],"categories":[],"categories_nodes":[],"categories_segments":[],"categories_sizes":[],"default_left":[0,0,0,0,0,0,0,0,0,0,0,0,0,0,0,0,0,0,0,0,0,0,0,0,0,0,0,0,0,0,0,0,0,0,0,0,0,0,0,0,0,0,0,0,0,0,0,0,0,0,0,0,0,0,0,0,0,0,0,0,0],"id":19,"left_children":[1,3,5,7,9,11,13,15,17,19,21,23,25,27,29,31,33,35,37,39,41,43,45,47,49,51,53,55,57,59,-1,-1,-1,-1,-1,-1,-1,-1,-1,-1,-1,-1,-1,-1,-1,-1,-1,-1,-1,-1,-1,-1,-1,-1,-1,-1,-1,-1,-1,-1,-1],"loss_changes":[4.3877865E6,4.84606E5,3.24401E5,2.2013612E5,7.173503E4,6.081875E4,4.006525E4,1.0137031E5,7.9065625E4,1.4399089E4,1.5110672E4,2.6188938E4,1.9512871E4,6.107875E3,6.891E3,6.036578E4,2.363867E4,7.604975E4,1.1891375E4,6.638431E3,1.1436006E3,5.8968125E3,1.9191875E3,3.1330469E4,3.649375E3,1.1858256E4,1.0898537E4,3.088918E3,3.5088125E3,2.116875E3,0E0,0E0,0E0,0E0,0E0,0E0,0E0,0E0,0E0,0E0,0E0,0E0,0E0,0E0,0E0,0E0,0E0,0E0,0E0,0E0,0E0,0E0,0E0,0E0,0E0,0E0,0E0,0E0,0E0,0E0,0E0],"parents":[2147483647,0,0,1,1,2,2,3,3,4,4,5,5,6,6,7,7,8,8,9,9,10,10,11,11,12,12,13,13,14,14,15,15,16,16,17,17,18,18,19,19,20,20,21,21,22,22,23,23,24,24,25,25,26,26,27,27,28,28,29,29],"right_children":[2,4,6,8,10,12,14,16,18,20,22,24,26,28,30,32,34,36,38,40,42,44,46,48,50,52,54,56,58,60,-1,-1,-1,-1,-1,-1,-1,-1,-1,-1,-1,-1,-1,-1,-1,-1,-1,-1,-1,-1,-1,-1,-1,-1,-1,-1,-1,-1,-1,-1,-1],"split_conditions":[1.41245E3,9.073909E3,6.4309E2,3.8825E1,8.4291E0,2.325644E1,8.48846E0,9.061503E3,3.8933E1,8.163937E3,9.10508E3,8.159089E3,6.42826E2,3.941E2,8.5043E0,2.388138E3,2.52448E0,9.066814E3,2.334433E1,9.076846E3,8.171567E3,8.44768E0,4.463709E0,2.388164E3,8.1955E3,8.126462E3,1.5826841E-3,5.092104E-1,1.3662601E-2,9.123749E3,-1.3974696E0,3.61931E-1,-7.731812E-2,4.3442738E-1,-2.6721853E-1,4.248125E-1,5.395216E-3,3.688851E-1,5.943665E-1,3.044079E-1,-3.3456888E-2,-3.3173013E-1,-6.571869E-1,-4.0228024E-1,-6.492814E-1,-7.2513723E-1,-1.0044985E0,-5.0057715E-1,-8.527412E-1,-8.8571763E-1,-1.1960652E0,6.0099185E-1,-8.306317E-2,1.5095468E-1,-5.5671173E-1,-8.297072E-1,-3.3498216E-1,-3.126031E-1,-1.044673E0,-1.1973796E0,-1.389135E0],"split_indices":[27,33,23,47,43,49,43,33,47,41,8,41,23,45,43,39,28,33,49,33,41,43,42,39,12,41,18,30,40,33,0,0,0,0,0,0,0,0,0,0,0,0,0,0,0,0,0,0,0,0,0,0,0,0,0,0,0,0,0,0,0],"split_type":[0,0,0,0,0,0,0,0,0,0,0,0,0,0,0,0,0,0,0,0,0,0,0,0,0,0,0,0,0,0,0,0,0,0,0,0,0,0,0,0,0,0,0,0,0,0,0,0,0,0,0,0,0,0,0,0,0,0,0,0,0],"sum_hessian":[1.3262E4,9.824E3,3.438E3,9.061E3,7.63E2,1.589E3,1.849E3,2.081E3,6.98E3,2.63E2,5E2,1.314E3,2.75E2,6.88E2,1.161E3,1.485E3,5.96E2,3.747E3,3.233E3,2.12E2,5.1E1,3.71E2,1.29E2,1.04E3,2.74E2,1.34E2,1.41E2,8.2E1,6.06E2,7.03E2,4.58E2,1.108E3,3.77E2,4.6E1,5.5E2,3.306E3,4.41E2,2.33E2,3E3,9.1E1,1.21E2,3.5E1,1.6E1,2.13E2,1.58E2,5.6E1,7.3E1,6.97E2,3.43E2,2.21E2,5.3E1,2.8E1,1.06E2,2.3E1,1.18E2,6.6E1,1.6E1,7E0,5.99E2,5.94E2,1.09E2],"tree_param":{"num_deleted":"0","num_feature":"51","num_nodes":"61","size_leaf_vector":"1"}},{"base_weights":[4.259036E-3,1.0582845E1,-2.9019117E1,1.3028956E1,-9.0440035E0,-1.5387014E1,-3.6445866E1,1.5195552E1,4.8738337E0,6.654808E0,-1.7501572E1,1.737158E0,-1.7742985E1,-3.0716183E1,-4.1741272E1,1.3157102E1,1.9862625E1,9.860117E0,-1.5342516E0,1.1631347E1,-5.4398646E0,-1.2134301E1,-2.2667215E1,8.999739E0,-2.0882679E1,-1.5215869E1,-2.6545897E1,-2.9270002E1,-1.1373906E0,-3.876226E1,-4.4382797E1,5.731806E-1,3.2843778E-1,6.3929963E-1,5.603216E-1,-9.821524E-2,4.1036975E-1,2.9613242E-1,-1.2352649E-1,4.5702654E-1,6.5238116E-4,1.17839985E-1,-2.749675E-1,-2.3795365E-1,-5.565159E-1,-1.9788063E-1,-7.2746336E-1,-1.0142251E-1,5.5725616E-1,-3.0586454E-1,-1.076326E0,-2.888534E-1,-7.475321E-1,-6.987713E-1,-1.0216132E0,-7.8821015E-1,-9.991683E-1,-1.109882E0,-1.270939E0,-1.2774053E0,-1.3852683E0],"categories":[],"categories_nodes":[],"categories_segments":[],"categories_sizes":[],"default_left":[0,0,0,0,0,0,0,0,0,0,0,0,0,0,0,0,0,0,0,0,0,0,0,0,0,0,0,0,0,0,0,0,0,0,0,0,0,0,0,0,0,0,0,0,0,0,0,0,0,0,0,0,0,0,0,0,0,0,0,0,0],"id":20,"left_children":[1,3,5,7,9,11,13,15,17,19,21,23,25,27,29,31,33,35,37,39,41,43,45,47,49,51,53,55,-1,57,59,-1,-1,-1,-1,-1,-1,-1,-1,-1,-1,-1,-1,-1,-1,-1,-1,-1,-1,-1,-1,-1,-1,-1,-1,-1,-1,-1,-1,-1,-1],"loss_changes":[4.0389308E6,4.6297712E5,3.5520425E5,1.5140088E5,1.4205162E5,5.009775E4,6.77135E4,6.417425E4,5.7561637E4,2.2634371E4,1.8994094E4,2.4993979E4,2.3866469E4,1.0297375E4,7.55725E3,6.1782562E4,3.1306875E3,5.085378E4,2.328725E4,1.1125895E4,3.8752256E3,9.101613E3,8.812484E3,1.3695927E4,5.5635693E3,4.5837234E4,5.118125E3,1.0213375E4,0E0,2.0084375E3,3.1E1,0E0,0E0,0E0,0E0,0E0,0E0,0E0,0E0,0E0,0E0,0E0,0E0,0E0,0E0,0E0,0E0,0E0,0E0,0E0,0E0,0E0,0E0,0E0,0E0,0E0,0E0,0E0,0E0,0E0,0E0],"parents":[2147483647,0,0,1,1,2,2,3,3,4,4,5,5,6,6,7,7,8,8,9,9,10,10,11,11,12,12,13,13,14,14,15,15,16,16,17,17,18,18,19,19,20,20,21,21,22,22,23,23,24,24,25,25,26,26,27,27,29,29,30,30],"right_children":[2,4,6,8,10,12,14,16,18,20,22,24,26,28,30,32,34,36,38,40,42,44,46,48,50,52,54,56,-1,58,60,-1,-1,-1,-1,-1,-1,-1,-1,-1,-1,-1,-1,-1,-1,-1,-1,-1,-1,-1,-1,-1,-1,-1,-1,-1,-1,-1,-1,-1,-1],"split_conditions":[8.45557E0,9.070941E3,1.594359E3,3.932E2,1.58836E3,1.590676E3,8.48846E0,5.54199E2,9.059166E3,8.42234E0,8.44385E0,9.061326E3,9.076349E3,9.11005E3,8.50097E0,9.052013E3,2.388011E3,5.53075E2,1.407271E3,9.076846E3,8.79141E-2,8.16663E3,3.1131842E0,-2.8571429E-5,2.388112E3,2.388159E3,8.1752E3,4.788E1,-1.1373906E0,4.1895385E0,1.425703E3,5.731806E-1,3.2843778E-1,6.3929963E-1,5.603216E-1,-9.821524E-2,4.1036975E-1,2.9613242E-1,-1.2352649E-1,4.5702654E-1,6.5238116E-4,1.17839985E-1,-2.749675E-1,-2.3795365E-1,-5.565159E-1,-1.9788063E-1,-7.2746336E-1,-1.0142251E-1,5.5725616E-1,-3.0586454E-1,-1.076326E0,-2.888534E-1,-7.475321E-1,-6.987713E-1,-1.0216132E0,-7.8821015E-1,-9.991683E-1,-1.109882E0,-1.270939E0,-1.2774053E0,-1.3852683E0],"split_indices":[43,33,25,45,25,25,43,29,33,43,43,33,33,8,43,33,31,29,27,33,36,12,34,19,39,39,12,9,0,42,27,0,0,0,0,0,0,0,0,0,0,0,0,0,0,0,0,0,0,0,0,0,0,0,0,0,0,0,0,0,0],"split_type":[0,0,0,0,0,0,0,0,0,0,0,0,0,0,0,0,0,0,0,0,0,0,0,0,0,0,0,0,0,0,0,0,0,0,0,0,0,0,0,0,0,0,0,0,0,0,0,0,0,0,0,0,0,0,0,0,0,0,0,0,0],"sum_hessian":[1.3153E4,9.64E3,3.513E3,8.572E3,1.068E3,1.24E3,2.273E3,6.772E3,1.8E3,3.74E2,6.94E2,1.5E2,1.09E3,1.095E3,1.178E3,4.716E3,2.056E3,1.012E3,7.88E2,2.65E2,1.09E2,3.42E2,3.52E2,1.14E2,3.6E1,8.49E2,2.41E2,9.16E2,1.79E2,5.61E2,6.17E2,1.275E3,3.441E3,9.18E2,1.138E3,2.28E2,7.84E2,1.45E2,6.43E2,2.02E2,6.3E1,3.1E1,7.8E1,2.08E2,1.34E2,3.2E1,3.2E2,5E1,6.4E1,2.2E1,1.4E1,5.4E2,3.09E2,1.71E2,7E1,5.3E2,3.86E2,3.84E2,1.77E2,3.2E2,2.97E2],"tree_param":{"num_deleted":"0","num_feature":"51","num_nodes":"61","size_leaf_vector":"1"}},{"base_weights":[-7.175292E-2,1.0134974E1,-2.8541136E1,1.2087107E1,-1.4787514E1,-1.5769485E1,-3.56251E1,7.778374E0,1.6948023E1,-1.4162457E0,-1.9250309E1,-1.9868874E1,-5.261503E0,-2.9696135E1,-4.0300365E1,9.608426E0,-7.539407E0,1.3887955E1,1.8682995E1,5.1032553E0,-5.4561496E0,-1.6355608E1,-2.9864635E1,-1.665405E1,-2.7480745E1,-2.8411102E-1,-1.9173738E1,-2.628988E1,-3.424543E1,-3.746727E1,-4.322023E1,4.567542E-1,1.9159651E-1,-1.05195306E-1,-5.057248E-1,5.2793044E-1,3.0495235E-1,6.1565673E-1,5.27848E-1,6.2041838E-2,5.4056567E-1,-8.179903E-3,-2.695864E-1,-3.9138412E-1,-5.9239E-1,-7.780765E-1,-1.0448934E0,-3.4565663E-1,-7.3133254E-1,-5.893994E-1,-9.187967E-1,2.5583634E-1,-1.6135468E-1,-4.1663298E-1,-9.474192E-1,-9.092676E-1,-6.3382566E-1,-9.640141E-1,-1.1663254E0,-1.0821549E0,-1.228006E0,-1.2210484E0,-1.3329499E0],"categories":[],"categories_nodes":[],"categories_segments":[],"categories_sizes":[],"default_left":[0,0,0,0,0,0,0,0,0,0,0,0,0,0,0,0,0,0,0,0,0,0,0,0,0,0,0,0,0,0,0,0,0,0,0,0,0,0,0,0,0,0,0,0,0,0,0,0,0,0,0,0,0,0,0,0,0,0,0,0,0,0,0],"id":21,"left_children":[1,3,5,7,9,11,13,15,17,19,21,23,25,27,29,31,33,35,37,39,41,43,45,47,49,51,53,55,57,59,61,-1,-1,-1,-1,-1,-1,-1,-1,-1,-1,-1,-1,-1,-1,-1,-1,-1,-1,-1,-1,-1,-1,-1,-1,-1,-1,-1,-1,-1,-1,-1,-1],"loss_changes":[3.8615058E6,4.760928E5,3.1673025E5,1.8987575E5,4.240039E4,5.387003E4,6.1311E4,1.3493597E5,2.2368125E4,4.7423745E3,1.5888156E4,2.1590531E4,2.4438617E4,1.456475E4,8.787125E3,7.768091E4,1.9256436E4,2.1172688E4,5.075125E3,2.6676294E3,2.0286316E3,4.466633E3,1.3009219E3,2.4929734E4,5.9537656E3,1.1762576E4,5.6605938E3,1.1289594E4,2.8979688E3,1.6480625E3,6.1875E1,0E0,0E0,0E0,0E0,0E0,0E0,0E0,0E0,0E0,0E0,0E0,0E0,0E0,0E0,0E0,0E0,0E0,0E0,0E0,0E0,0E0,0E0,0E0,0E0,0E0,0E0,0E0,0E0,0E0,0E0,0E0,0E0],"parents":[2147483647,0,0,1,1,2,2,3,3,4,4,5,5,6,6,7,7,8,8,9,9,10,10,11,11,12,12,13,13,14,14,15,15,16,16,17,17,18,18,19,19,20,20,21,21,22,22,23,23,24,24,25,25,26,26,27,27,28,28,29,29,30,30],"right_children":[2,4,6,8,10,12,14,16,18,20,22,24,26,28,30,32,34,36,38,40,42,44,46,48,50,52,54,56,58,60,62,-1,-1,-1,-1,-1,-1,-1,-1,-1,-1,-1,-1,-1,-1,-1,-1,-1,-1,-1,-1,-1,-1,-1,-1,-1,-1,-1,-1,-1,-1,-1,-1],"split_conditions":[4.765E1,9.075651E3,1.594481E3,2.333957E1,1.588678E3,2.32503E1,4.7881E1,9.067737E3,3.8949E1,9.078602E3,9.11312E3,2.388164E3,9.063662E3,9.082537E3,8.50097E0,9.052878E3,2.38809E3,8.14056E3,4.7212E1,3.8586125E-2,8.41776E0,9.08872E3,8.45172E0,9.072222E3,9.043687E3,3.4260066E0,5.8921456E-2,5.52565E2,8.1955E3,3.955E2,4.8015E1,4.567542E-1,1.9159651E-1,-1.05195306E-1,-5.057248E-1,5.2793044E-1,3.0495235E-1,6.1565673E-1,5.27848E-1,6.2041838E-2,5.4056567E-1,-8.179903E-3,-2.695864E-1,-3.9138412E-1,-5.9239E-1,-7.780765E-1,-1.0448934E0,-3.4565663E-1,-7.3133254E-1,-5.893994E-1,-9.187967E-1,2.5583634E-1,-1.6135468E-1,-4.1663298E-1,-9.474192E-1,-9.092676E-1,-6.3382566E-1,-9.640141E-1,-1.1663254E0,-1.0821549E0,-1.228006E0,-1.2210484E0,-1.3329499E0],"split_indices":[35,33,25,49,25,49,35,33,47,33,8,39,33,33,43,33,31,12,35,40,43,8,43,33,33,26,50,29,12,45,35,0,0,0,0,0,0,0,0,0,0,0,0,0,0,0,0,0,0,0,0,0,0,0,0,0,0,0,0,0,0,0,0],"split_type":[0,0,0,0,0,0,0,0,0,0,0,0,0,0,0,0,0,0,0,0,0,0,0,0,0,0,0,0,0,0,0,0,0,0,0,0,0,0,0,0,0,0,0,0,0,0,0,0,0,0,0,0,0,0,0,0,0,0,0,0,0,0,0],"sum_hessian":[1.3287E4,9.781E3,3.506E3,9.071E3,7.1E2,1.252E3,2.254E3,4.81E3,4.261E3,1.78E2,5.32E2,9E2,3.52E2,9.97E2,1.257E3,4.297E3,5.13E2,1.545E3,2.716E3,6.8E1,1.1E2,4.2E2,1.12E2,6.35E2,2.65E2,2.6E2,9.2E1,5.74E2,4.23E2,6.45E2,6.12E2,1.565E3,2.732E3,3.59E2,1.54E2,7.72E2,7.73E2,1.003E3,1.713E3,5.6E1,1.2E1,4.5E1,6.5E1,2.15E2,2.05E2,6.6E1,4.6E1,3.83E2,2.52E2,7.8E1,1.87E2,9.5E1,1.65E2,6.6E1,2.6E1,3.2E2,2.54E2,2.96E2,1.27E2,4.68E2,1.77E2,2.1E2,4.02E2],"tree_param":{"num_deleted":"0","num_feature":"51","num_nodes":"63","size_leaf_vector":"1"}},{"base_weights":[-1.6358192E-1,9.807136E0,-2.7981237E1,1.1808859E1,-1.1059722E1,-1.5276494E1,-3.4513992E1,1.5108341E1,5.5668445E0,1.984145E0,-1.7448765E1,1.1952779E0,-1.7762753E1,-2.8809906E1,-3.9137974E1,1.2978637E1,1.8851118E1,8.258918E0,-4.6174054E0,6.69567E0,-7.6628866E0,-1.2473043E1,-2.252107E1,9.264966E0,-1.9739716E1,-1.5366531E1,-2.5583656E1,-2.6663162E1,-3.5505157E1,-3.6829464E1,-4.212491E1,5.732156E-1,3.1961238E-1,5.3557354E-1,6.023573E-1,-5.1574513E-2,3.0689672E-1,-3.9626148E-1,1.0172966E-2,3.8803762E-1,-5.5787876E-2,-6.428252E-1,-1.6665305E-1,-1.3297315E-1,-4.7259983E-1,-6.1214787E-1,-8.53174E-1,-6.5915716E-1,4.37672E-1,-2.4688834E-1,-8.6965704E-1,-3.684276E-1,-7.453906E-1,-9.001596E-1,-6.433721E-1,-9.001687E-1,-7.3256093E-1,-9.9912137E-1,-1.1897777E0,-1.0703474E0,-1.252189E0,-1.1627504E0,-1.2917588E0],"categories":[],"categories_nodes":[],"categories_segments":[],"categories_sizes":[],"default_left":[0,0,0,0,0,0,0,0,0,0,0,0,0,0,0,0,0,0,0,0,0,0,0,0,0,0,0,0,0,0,0,0,0,0,0,0,0,0,0,0,0,0,0,0,0,0,0,0,0,0,0,0,0,0,0,0,0,0,0,0,0,0,0],"id":22,"left_children":[1,3,5,7,9,11,13,15,17,19,21,23,25,27,29,31,33,35,37,39,41,43,45,47,49,51,53,55,57,59,61,-1,-1,-1,-1,-1,-1,-1,-1,-1,-1,-1,-1,-1,-1,-1,-1,-1,-1,-1,-1,-1,-1,-1,-1,-1,-1,-1,-1,-1,-1,-1,-1],"loss_changes":[3.6780945E6,4.0788612E5,2.89879E5,1.8337988E5,7.128846E4,4.8755406E4,5.98E4,4.620225E4,8.453654E4,1.2868838E4,1.4205922E4,2.670629E4,1.8984688E4,1.39725E4,7.22625E3,5.2757062E4,2.22925E3,4.7964547E4,2.7470426E4,1.0165416E4,2.579163E3,7.6318125E3,2.9638281E3,1.9279688E4,4.445467E3,2.2920188E4,3.7659688E3,5.193875E3,9.559375E2,2.614625E3,5.36875E1,0E0,0E0,0E0,0E0,0E0,0E0,0E0,0E0,0E0,0E0,0E0,0E0,0E0,0E0,0E0,0E0,0E0,0E0,0E0,0E0,0E0,0E0,0E0,0E0,0E0,0E0,0E0,0E0,0E0,0E0,0E0,0E0],"parents":[2147483647,0,0,1,1,2,2,3,3,4,4,5,5,6,6,7,7,8,8,9,9,10,10,11,11,12,12,13,13,14,14,15,15,16,16,17,17,18,18,19,19,20,20,21,21,22,22,23,23,24,24,25,25,26,26,27,27,28,28,29,29,30,30],"right_children":[2,4,6,8,10,12,14,16,18,20,22,24,26,28,30,32,34,36,38,40,42,44,46,48,50,52,54,56,58,60,62,-1,-1,-1,-1,-1,-1,-1,-1,-1,-1,-1,-1,-1,-1,-1,-1,-1,-1,-1,-1,-1,-1,-1,-1,-1,-1,-1,-1,-1,-1,-1,-1],"split_conditions":[8.45595E0,9.072951E3,1.594359E3,4.75E1,1.588678E3,1.590899E3,4.7881E1,5.54199E2,9.063768E3,8.42234E0,1.591179E3,9.06107E3,4.782E1,8.171567E3,4.8005E1,9.053567E3,5.54428E2,5.53086E2,3.8797E1,9.076846E3,1.686548E-2,3.8800206E0,4.4026256E0,8.121108E3,3.0088943E-1,8.151399E3,5.20814E2,5.2051E2,8.205729E3,8.189877E3,8.50316E0,5.732156E-1,3.1961238E-1,5.3557354E-1,6.023573E-1,-5.1574513E-2,3.0689672E-1,-3.9626148E-1,1.0172966E-2,3.8803762E-1,-5.5787876E-2,-6.428252E-1,-1.6665305E-1,-1.3297315E-1,-4.7259983E-1,-6.1214787E-1,-8.53174E-1,-6.5915716E-1,4.37672E-1,-2.4688834E-1,-8.6965704E-1,-3.684276E-1,-7.453906E-1,-9.001596E-1,-6.433721E-1,-9.001687E-1,-7.3256093E-1,-9.9912137E-1,-1.1897777E0,-1.0703474E0,-1.252189E0,-1.1627504E0,-1.2917588E0],"split_indices":[43,33,25,9,25,25,35,29,33,43,25,33,9,41,35,33,29,29,47,33,32,34,42,41,38,41,37,10,41,41,43,0,0,0,0,0,0,0,0,0,0,0,0,0,0,0,0,0,0,0,0,0,0,0,0,0,0,0,0,0,0,0,0],"split_type":[0,0,0,0,0,0,0,0,0,0,0,0,0,0,0,0,0,0,0,0,0,0,0,0,0,0,0,0,0,0,0,0,0,0,0,0,0,0,0,0,0,0,0,0,0,0,0,0,0,0,0,0,0,0,0,0,0,0,0,0,0,0,0],"sum_hessian":[1.3259E4,9.761E3,3.498E3,8.907E3,8.54E2,1.189E3,2.309E3,5.826E3,3.081E3,2.81E2,5.73E2,1.56E2,1.033E3,1.037E3,1.272E3,3.716E3,2.11E3,2.437E3,6.44E2,1.89E2,9.2E1,2.91E2,2.82E2,1.13E2,4.3E1,7.93E2,2.4E2,7.89E2,2.48E2,7.25E2,5.47E2,1.02E3,2.696E3,1.172E3,9.38E2,4.02E2,2.035E3,2.35E2,4.09E2,1.09E2,8E1,1.1E1,8.1E1,8.5E1,2.06E2,2.11E2,7.1E1,1.6E1,9.7E1,2E1,2.3E1,6E2,1.93E2,1.13E2,1.27E2,3.12E2,4.77E2,1.68E2,8E1,5.94E2,1.31E2,1.28E2,4.19E2],"tree_param":{"num_deleted":"0","num_feature":"51","num_nodes":"63","size_leaf_vector":"1"}},{"base_weights":[-1.12325266E-1,9.606469E0,-2.6525799E1,1.1694858E1,-9.327095E0,-1.4389097E1,-3.3363365E1,1.4398423E1,4.8435683E0,4.9400115E0,-1.583139E1,3.587235E0,-1.6555027E1,-2.7913532E1,-3.7987865E1,1.2494108E1,1.8254513E1,8.745265E0,-1.2944562E0,9.377983E0,-5.4532843E0,-1.1064801E1,-2.1291676E1,9.582676E0,-1.3199729E1,-1.3837273E1,-2.3880722E1,-2.6029795E1,-3.535999E1,-3.5984673E1,-1.2370687E0,5.2675194E-1,3.260419E-1,5.4944944E-1,-6.3925974E-2,3.6412793E-1,-3.7791267E-2,-9.161465E-2,5.055776E-1,3.923099E-1,1.8590573E-2,3.0063529E-2,-2.6415834E-1,-2.4720101E-1,-5.750754E-1,-5.6997544E-1,-7.7960706E-1,-2.0298244E-1,5.655121E-1,5.184864E-1,-5.550818E-1,-2.2667497E-1,-6.51076E-1,-4.764226E-1,-8.12876E-1,-8.409189E-1,-6.959415E-1,-9.807283E-1,-1.1618108E0,-1.0477061E0,-1.2305251E0],"categories":[],"categories_nodes":[],"categories_segments":[],"categories_sizes":[],"default_left":[0,0,0,0,0,0,0,0,0,0,0,0,0,0,0,0,0,0,0,0,0,0,0,0,0,0,0,0,0,0,0,0,0,0,0,0,0,0,0,0,0,0,0,0,0,0,0,0,0,0,0,0,0,0,0,0,0,0,0,0,0],"id":23,"left_children":[1,3,5,7,9,11,13,15,17,19,21,23,25,27,29,31,33,35,37,39,41,43,45,47,49,51,53,55,57,59,-1,-1,-1,-1,-1,-1,-1,-1,-1,-1,-1,-1,-1,-1,-1,-1,-1,-1,-1,-1,-1,-1,-1,-1,-1,-1,-1,-1,-1,-1,-1],"loss_changes":[3.3985438E6,3.8278338E5,2.9503125E5,1.6139438E5,8.9349375E4,5.009147E4,5.632625E4,4.5667E4,5.9116727E4,1.3980936E4,1.6968234E4,1.4116178E4,2.2505688E4,1.3794125E4,6.511875E3,3.4288125E4,2.5833125E3,5.1231062E4,3.0701662E4,6.8600723E3,1.9779241E3,7.9690547E3,2.81075E3,1.5733675E4,6.3008003E3,4.1286953E4,7.5175E3,4.1146875E3,6.1221875E2,2.669E3,0E0,0E0,0E0,0E0,0E0,0E0,0E0,0E0,0E0,0E0,0E0,0E0,0E0,0E0,0E0,0E0,0E0,0E0,0E0,0E0,0E0,0E0,0E0,0E0,0E0,0E0,0E0,0E0,0E0,0E0,0E0],"parents":[2147483647,0,0,1,1,2,2,3,3,4,4,5,5,6,6,7,7,8,8,9,9,10,10,11,11,12,12,13,13,14,14,15,15,16,16,17,17,18,18,19,19,20,20,21,21,22,22,23,23,24,24,25,25,26,26,27,27,28,28,29,29],"right_children":[2,4,6,8,10,12,14,16,18,20,22,24,26,28,30,32,34,36,38,40,42,44,46,48,50,52,54,56,58,60,-1,-1,-1,-1,-1,-1,-1,-1,-1,-1,-1,-1,-1,-1,-1,-1,-1,-1,-1,-1,-1,-1,-1,-1,-1,-1,-1,-1,-1,-1,-1],"split_conditions":[8.45557E0,9.071831E3,1.594359E3,1.589696E3,1.58836E3,1.590676E3,4.7881E1,3.8975E1,9.059942E3,8.42129E0,1.591179E3,9.061326E3,9.072608E3,8.18154E3,4.8015E1,9.052013E3,4.7412E1,4.7604E1,5.21733E2,9.076846E3,8.79141E-2,9.089189E3,4.762E1,8.9666046E-2,2.0566693E-1,2.388155E3,3.4282488E-1,5.2069E2,8.21354E3,9.123749E3,-1.2370687E0,5.2675194E-1,3.260419E-1,5.4944944E-1,-6.3925974E-2,3.6412793E-1,-3.7791267E-2,-9.161465E-2,5.055776E-1,3.923099E-1,1.8590573E-2,3.0063529E-2,-2.6415834E-1,-2.4720101E-1,-5.750754E-1,-5.6997544E-1,-7.7960706E-1,-2.0298244E-1,5.655121E-1,5.184864E-1,-5.550818E-1,-2.2667497E-1,-6.51076E-1,-4.764226E-1,-8.12876E-1,-8.409189E-1,-6.959415E-1,-9.807283E-1,-1.1618108E0,-1.0477061E0,-1.2305251E0],"split_indices":[43,33,25,25,25,25,35,47,33,43,25,33,33,12,35,33,35,35,37,33,36,33,35,48,24,39,30,10,12,33,0,0,0,0,0,0,0,0,0,0,0,0,0,0,0,0,0,0,0,0,0,0,0,0,0,0,0,0,0,0,0],"split_type":[0,0,0,0,0,0,0,0,0,0,0,0,0,0,0,0,0,0,0,0,0,0,0,0,0,0,0,0,0,0,0,0,0,0,0,0,0,0,0,0,0,0,0,0,0,0,0,0,0,0,0,0,0,0,0,0,0,0,0,0,0],"sum_hessian":[1.3237E4,9.677E3,3.56E3,8.716E3,9.61E2,1.284E3,2.276E3,6.249E3,2.467E3,3.01E2,6.6E2,1.38E2,1.146E3,1.048E3,1.228E3,4.186E3,2.063E3,1.508E3,9.59E2,2.11E2,9E1,3.54E2,3.06E2,1.02E2,3.6E1,8.38E2,3.08E2,8.4E2,2.08E2,7.67E2,4.61E2,1.015E3,3.171E3,2.057E3,6E0,1.126E3,3.82E2,8.75E2,8.4E1,1.48E2,6.3E1,3.1E1,5.9E1,2.64E2,9E1,2.09E2,9.7E1,3.7E1,6.5E1,5E0,3.1E1,4.67E2,3.71E2,9E1,2.18E2,4.87E2,3.53E2,1.22E2,8.6E1,6.4E2,1.27E2],"tree_param":{"num_deleted":"0","num_feature":"51","num_nodes":"61","size_leaf_vector":"1"}},{"base_weights":[-2.3509863E-1,9.292739E0,-2.609859E1,1.0937028E1,-1.2360631E1,-1.459422E1,-3.239003E1,1.3675089E1,4.1431327E0,5.938926E-1,-1.7226274E1,-1.1141443E0,-1.6714493E1,-2.741222E1,-3.694368E1,1.16436615E1,1.7355566E1,6.053749E0,-1.0412901E1,6.2362723E0,-7.1012735E0,-1.3134652E1,-2.2421316E1,3.9641798E0,-1.7048063E1,-1.5383019E1,-2.9927647E1,-2.5977028E1,-3.3212124E1,-3.4004047E1,-3.9117004E1,3.9935738E-1,2.0392339E-1,4.876194E-1,5.625046E-1,2.7173066E-1,-4.6496727E-3,1.5221271E-2,-4.2117393E-1,3.7071308E-1,6.183689E-2,-3.1115738E-1,-7.799477E-2,-2.5333858E-1,-5.421889E-1,-7.106485E-1,-3.1949115E-1,-2.5492328E-1,3.7296215E-1,-5.907332E-1,6.2761195E-2,-3.6221072E-1,-6.9584197E-1,-7.713442E-1,-9.9305534E-1,-9.0790033E-1,-7.164935E-1,-9.2371297E-1,-1.0878112E0,-1.1127975E0,-9.560723E-1,-1.114061E0,-1.2145904E0],"categories":[],"categories_nodes":[],"categories_segments":[],"categories_sizes":[],"default_left":[0,0,0,0,0,0,0,0,0,0,0,0,0,0,0,0,0,0,0,0,0,0,0,0,0,0,0,0,0,0,0,0,0,0,0,0,0,0,0,0,0,0,0,0,0,0,0,0,0,0,0,0,0,0,0,0,0,0,0,0,0,0,0],"id":24,"left_children":[1,3,5,7,9,11,13,15,17,19,21,23,25,27,29,31,33,35,37,39,41,43,45,47,49,51,53,55,57,59,61,-1,-1,-1,-1,-1,-1,-1,-1,-1,-1,-1,-1,-1,-1,-1,-1,-1,-1,-1,-1,-1,-1,-1,-1,-1,-1,-1,-1,-1,-1,-1,-1],"loss_changes":[3.2705238E6,3.454622E5,2.58138E5,1.6764125E5,4.318721E4,3.6136906E4,5.132575E4,4.783525E4,7.212134E4,8.207066E3,1.02910625E4,1.4066328E4,1.8768719E4,8.351875E3,6.355625E3,3.3404438E4,3.2025E3,4.2730094E4,1.1926555E4,2.7599941E3,1.150844E3,6.355578E3,2.999039E3,1.4034766E4,2.1658955E3,2.5442219E4,4.738203E2,7.2830625E3,4.78E2,2.2408125E3,3.551875E2,0E0,0E0,0E0,0E0,0E0,0E0,0E0,0E0,0E0,0E0,0E0,0E0,0E0,0E0,0E0,0E0,0E0,0E0,0E0,0E0,0E0,0E0,0E0,0E0,0E0,0E0,0E0,0E0,0E0,0E0,0E0,0E0],"parents":[2147483647,0,0,1,1,2,2,3,3,4,4,5,5,6,6,7,7,8,8,9,9,10,10,11,11,12,12,13,13,14,14,15,15,16,16,17,17,18,18,19,19,20,20,21,21,22,22,23,23,24,24,25,25,26,26,27,27,28,28,29,29,30,30],"right_children":[2,4,6,8,10,12,14,16,18,20,22,24,26,28,30,32,34,36,38,40,42,44,46,48,50,52,54,56,58,60,62,-1,-1,-1,-1,-1,-1,-1,-1,-1,-1,-1,-1,-1,-1,-1,-1,-1,-1,-1,-1,-1,-1,-1,-1,-1,-1,-1,-1,-1,-1,-1,-1],"split_conditions":[8.45557E0,9.07791E3,1.594359E3,1.589696E3,1.588678E3,1.590857E3,8.48846E0,3.8966E1,8.14735E3,8.16084E3,8.44704E0,9.06647E3,9.09575E3,8.1752E3,3.954E2,8.144E3,5.22308E2,6.42765E2,8.43438E0,8.41495E0,5.21939E2,9.08986E3,1.3568346E-1,8.983936E-2,1.2653063E-1,2.388161E3,9.11312E3,5.20575E2,9.13646E3,5.2025E2,6.43453E2,3.9935738E-1,2.0392339E-1,4.876194E-1,5.625046E-1,2.7173066E-1,-4.6496727E-3,1.5221271E-2,-4.2117393E-1,3.7071308E-1,6.183689E-2,-3.1115738E-1,-7.799477E-2,-2.5333858E-1,-5.421889E-1,-7.106485E-1,-3.1949115E-1,-2.5492328E-1,3.7296215E-1,-5.907332E-1,6.2761195E-2,-3.6221072E-1,-6.9584197E-1,-7.713442E-1,-9.9305534E-1,-9.0790033E-1,-7.164935E-1,-9.2371297E-1,-1.0878112E0,-1.1127975E0,-9.560723E-1,-1.114061E0,-1.2145904E0],"split_indices":[43,8,25,25,25,25,43,47,12,12,43,8,8,12,45,12,37,23,43,43,37,8,36,48,36,39,8,37,8,37,23,0,0,0,0,0,0,0,0,0,0,0,0,0,0,0,0,0,0,0,0,0,0,0,0,0,0,0,0,0,0,0,0],"split_type":[0,0,0,0,0,0,0,0,0,0,0,0,0,0,0,0,0,0,0,0,0,0,0,0,0,0,0,0,0,0,0,0,0,0,0,0,0,0,0,0,0,0,0,0,0,0,0,0,0,0,0,0,0,0,0,0,0,0,0,0,0,0,0],"sum_hessian":[1.327E4,9.698E3,3.572E3,9.014E3,6.84E2,1.264E3,2.308E3,6.424E3,2.59E3,1.87E2,4.97E2,1.72E2,1.092E3,1.106E3,1.202E3,4.142E3,2.282E3,2.29E3,3E2,1.08E2,7.9E1,2.8E2,2.17E2,1.31E2,4.1E1,9.94E2,9.8E1,8.91E2,2.15E2,5.18E2,6.84E2,3.08E3,1.062E3,1.282E3,1E3,1.543E3,7.47E2,7.5E1,2.25E2,4.3E1,6.5E1,4.5E1,3.4E1,1.45E2,1.35E2,1.95E2,2.2E1,5.3E1,7.8E1,3.6E1,5E0,7E2,2.94E2,4.6E1,5.2E1,2.88E2,6.03E2,1.26E2,8.9E1,2.05E2,3.13E2,2.91E2,3.93E2],"tree_param":{"num_deleted":"0","num_feature":"51","num_nodes":"63","size_leaf_vector":"1"}},{"base_weights":[-3.5339613E-2,8.359843E0,-2.7514421E1,1.0328911E1,-1.0777089E1,-2.0572098E1,-3.443896E1,1.2520274E0,1.2805624E1,1.800269E0,-1.7158907E1,-1.1376518E1,-2.3065815E1,-3.1299091E1,-3.7910156E1,7.7072644E0,-3.4882188E0,1.6409538E1,1.0504036E1,9.375988E0,-4.487043E0,-1.1659316E1,-2.1649387E1,1.6794025E1,-1.3044874E1,-2.1713112E1,-3.0883585E1,-1.51765585E1,-3.1767307E1,-3.6295708E1,-1.1879103E0,3.6011788E-1,-1.8190573E-1,3.3805605E-2,-3.1270427E-1,5.111556E-1,3.5235572E-1,5.0326747E-1,2.3169851E-1,4.4935122E-1,4.2470377E-2,-2.5689323E-2,-3.848526E-1,-1.7974451E-1,-5.004791E-1,-5.792558E-1,-8.6679757E-1,6.689735E-1,1.2513408E-1,3.447657E-1,-4.3727455E-1,-6.035882E-1,-8.143767E-1,-8.4306425E-1,-1.0239266E0,8.145764E-2,-5.935582E-1,-8.70141E-1,-1.018734E0,-1.0931805E0,-6.3447016E-1],"categories":[],"categories_nodes":[],"categories_segments":[],"categories_sizes":[],"default_left":[0,0,0,0,0,0,0,0,0,0,0,0,0,0,0,0,0,0,0,0,0,0,0,0,0,0,0,0,0,0,0,0,0,0,0,0,0,0,0,0,0,0,0,0,0,0,0,0,0,0,0,0,0,0,0,0,0,0,0,0,0],"id":25,"left_children":[1,3,5,7,9,11,13,15,17,19,21,23,25,27,29,31,33,35,37,39,41,43,45,47,49,51,53,55,57,59,-1,-1,-1,-1,-1,-1,-1,-1,-1,-1,-1,-1,-1,-1,-1,-1,-1,-1,-1,-1,-1,-1,-1,-1,-1,-1,-1,-1,-1,-1,-1],"loss_changes":[3.0490542E6,3.8160306E5,1.4797975E5,2.06358E5,7.5882664E4,3.5212062E4,1.567425E4,6.0277125E4,5.964925E4,1.523633E4,1.5231844E4,1.5822582E4,1.21888125E4,5.6928125E3,5.50875E2,4.9419305E4,3.6371367E4,8.0409375E3,7.66745E4,6.445323E3,5.2889434E3,7.98591E3,5.2752812E3,1.2273008E3,1.1962871E4,8.457281E3,6.395469E2,2.1151792E3,3.819875E3,6.7E1,0E0,0E0,0E0,0E0,0E0,0E0,0E0,0E0,0E0,0E0,0E0,0E0,0E0,0E0,0E0,0E0,0E0,0E0,0E0,0E0,0E0,0E0,0E0,0E0,0E0,0E0,0E0,0E0,0E0,0E0,0E0],"parents":[2147483647,0,0,1,1,2,2,3,3,4,4,5,5,6,6,7,7,8,8,9,9,10,10,11,11,12,12,13,13,14,14,15,15,16,16,17,17,18,18,19,19,20,20,21,21,22,22,23,23,24,24,25,25,26,26,27,27,28,28,29,29],"right_children":[2,4,6,8,10,12,14,16,18,20,22,24,26,28,30,32,34,36,38,40,42,44,46,48,50,52,54,56,58,60,-1,-1,-1,-1,-1,-1,-1,-1,-1,-1,-1,-1,-1,-1,-1,-1,-1,-1,-1,-1,-1,-1,-1,-1,-1,-1,-1,-1,-1,-1,-1],"split_conditions":[6.42896E2,9.072951E3,6.43153E2,3.881333E1,8.4291E0,1.592594E3,3.954E2,1.590857E3,3.922E2,9.076846E3,1.591179E3,1.589212E3,9.100078E3,3.94E2,6.43489E2,9.061326E3,8.45446E0,5.285693E0,9.053709E3,1.587179E3,8.16764E3,8.15997E3,8.18929E3,2.176363E-3,8.44385E0,4.7822E1,8.1955E3,2.388147E3,4.794E1,3.772709E-4,-1.1879103E0,3.6011788E-1,-1.8190573E-1,3.3805605E-2,-3.1270427E-1,5.111556E-1,3.5235572E-1,5.0326747E-1,2.3169851E-1,4.4935122E-1,4.2470377E-2,-2.5689323E-2,-3.848526E-1,-1.7974451E-1,-5.004791E-1,-5.792558E-1,-8.6679757E-1,6.689735E-1,1.2513408E-1,3.447657E-1,-4.3727455E-1,-6.035882E-1,-8.143767E-1,-8.4306425E-1,-1.0239266E0,8.145764E-2,-5.935582E-1,-8.70141E-1,-1.018734E0,-1.0931805E0,-6.3447016E-1],"split_indices":[23,33,23,47,43,25,45,25,45,33,25,25,33,45,23,33,43,34,33,25,12,12,12,18,43,35,12,39,9,20,0,0,0,0,0,0,0,0,0,0,0,0,0,0,0,0,0,0,0,0,0,0,0,0,0,0,0,0,0,0,0],"split_type":[0,0,0,0,0,0,0,0,0,0,0,0,0,0,0,0,0,0,0,0,0,0,0,0,0,0,0,0,0,0,0,0,0,0,0,0,0,0,0,0,0,0,0,0,0,0,0,0,0,0,0,0,0,0,0,0,0,0,0,0,0],"sum_hessian":[1.3215E4,1.0123E4,3.092E3,9.179E3,9.44E2,1.546E3,1.546E3,1.968E3,7.211E3,3.18E2,6.26E2,3.31E2,1.215E3,8.17E2,7.29E2,8.33E2,1.135E3,2.808E3,4.403E3,1.44E2,1.74E2,2.83E2,3.43E2,1.8E1,3.13E2,1.039E3,1.76E2,2.4E1,7.93E2,3.84E2,3.45E2,6.35E2,1.98E2,6.82E2,4.53E2,2.472E3,3.36E2,1.351E3,3.052E3,8.4E1,6E1,1.22E2,5.2E1,1.34E2,1.49E2,2.62E2,8.1E1,1.2E1,6E0,1.8E1,2.95E2,8.07E2,2.32E2,1E2,7.6E1,5E0,1.9E1,3.57E2,4.36E2,3.79E2,5E0],"tree_param":{"num_deleted":"0","num_feature":"51","num_nodes":"61","size_leaf_vector":"1"}},{"base_weights":[-1.401096E-1,8.1681795E0,-2.6357042E1,1.1717976E1,-2.0123396E0,-1.7699663E1,-3.208906E1,1.2457734E1,-5.339187E0,2.3810608E0,-1.7493254E1,-1.3413654E1,-2.4634375E1,-2.8241453E1,-3.5635483E1,9.800507E0,1.5743356E1,-7.44449E-1,-1.1494674E1,-2.8792555E0,8.056494E0,-1.4255069E1,-2.4879269E1,1.3564569E1,-1.4320136E1,-2.2069147E1,-3.074322E1,-2.5091341E1,-3.003938E1,-3.3455124E1,-3.762161E1,4.6938896E-1,2.259271E-1,5.360558E-1,4.3883887E-1,9.015588E-2,-1.7802091E-1,-2.550946E-1,-4.8692116E-1,-4.5342302E-1,-2.7343383E-2,4.3513313E-1,1.1364542E-1,-2.123476E-1,-5.293566E-1,-5.6653833E-1,-8.148777E-1,-1.3480264E-1,6.551993E-1,-2.58578E-1,-5.202956E-1,-5.3010327E-1,-7.165033E-1,-7.423086E-1,-9.730256E-1,-3.7173295E-1,-7.831047E-1,-9.102439E-1,-1.3942792E-1,-9.4808877E-1,-1.0481786E0,-1.1466702E0,-9.926421E-1],"categories":[],"categories_nodes":[],"categories_segments":[],"categories_sizes":[],"default_left":[0,0,0,0,0,0,0,0,0,0,0,0,0,0,0,0,0,0,0,0,0,0,0,0,0,0,0,0,0,0,0,0,0,0,0,0,0,0,0,0,0,0,0,0,0,0,0,0,0,0,0,0,0,0,0,0,0,0,0,0,0,0,0],"id":26,"left_children":[1,3,5,7,9,11,13,15,17,19,21,23,25,27,29,31,33,35,37,39,41,43,45,47,49,51,53,55,57,59,61,-1,-1,-1,-1,-1,-1,-1,-1,-1,-1,-1,-1,-1,-1,-1,-1,-1,-1,-1,-1,-1,-1,-1,-1,-1,-1,-1,-1,-1,-1,-1,-1],"loss_changes":[2.8693122E6,3.615197E5,1.56741E5,9.36555E4,1.759935E5,3.7268188E4,2.5001375E4,6.1912E4,8.730844E3,6.021001E4,1.3326031E4,1.9367188E4,6.87475E3,4.4511875E3,3.01975E3,5.206378E4,7.269375E3,3.4815505E3,1.7321562E3,2.5193633E4,2.6641246E4,9.607297E3,1.8550234E3,3.9835044E3,1.2931125E4,2.3155156E3,6.177656E2,4.0471094E3,4.307875E3,2.153125E2,1.215625E2,0E0,0E0,0E0,0E0,0E0,0E0,0E0,0E0,0E0,0E0,0E0,0E0,0E0,0E0,0E0,0E0,0E0,0E0,0E0,0E0,0E0,0E0,0E0,0E0,0E0,0E0,0E0,0E0,0E0,0E0,0E0,0E0],"parents":[2147483647,0,0,1,1,2,2,3,3,4,4,5,5,6,6,7,7,8,8,9,9,10,10,11,11,12,12,13,13,14,14,15,15,16,16,17,17,18,18,19,19,20,20,21,21,22,22,23,23,24,24,25,25,26,26,27,27,28,28,29,29,30,30],"right_children":[2,4,6,8,10,12,14,16,18,20,22,24,26,28,30,32,34,36,38,40,42,44,46,48,50,52,54,56,58,60,62,-1,-1,-1,-1,-1,-1,-1,-1,-1,-1,-1,-1,-1,-1,-1,-1,-1,-1,-1,-1,-1,-1,-1,-1,-1,-1,-1,-1,-1,-1,-1,-1],"split_conditions":[6.42889E2,3.932E2,4.7788E1,9.075153E3,8.148003E3,8.151642E3,6.4331E2,2.33622E1,9.083632E3,3.8798E1,9.090203E3,4.7564E1,8.18355E3,4.0293703E0,1.599237E3,9.052013E3,8.140071E3,1.404016E3,2.9933444E-1,5.52885E2,8.133513E3,1.590724E3,4.75E1,3.8811E1,1.592531E3,3.4948215E-1,5.9672294E0,1.8973665E-2,2.324044E1,4.802E1,3.8562E1,4.6938896E-1,2.259271E-1,5.360558E-1,4.3883887E-1,9.015588E-2,-1.7802091E-1,-2.550946E-1,-4.8692116E-1,-4.5342302E-1,-2.7343383E-2,4.3513313E-1,1.1364542E-1,-2.123476E-1,-5.293566E-1,-5.6653833E-1,-8.148777E-1,-1.3480264E-1,6.551993E-1,-2.58578E-1,-5.202956E-1,-5.3010327E-1,-7.165033E-1,-7.423086E-1,-9.730256E-1,-3.7173295E-1,-7.831047E-1,-9.102439E-1,-1.3942792E-1,-9.4808877E-1,-1.0481786E0,-1.1466702E0,-9.926421E-1],"split_indices":[23,45,35,33,41,41,23,49,33,47,33,35,12,34,25,33,41,27,24,29,41,25,35,47,25,30,34,40,49,9,47,0,0,0,0,0,0,0,0,0,0,0,0,0,0,0,0,0,0,0,0,0,0,0,0,0,0,0,0,0,0,0,0],"split_type":[0,0,0,0,0,0,0,0,0,0,0,0,0,0,0,0,0,0,0,0,0,0,0,0,0,0,0,0,0,0,0,0,0,0,0,0,0,0,0,0,0,0,0,0,0,0,0,0,0,0,0,0,0,0,0,0,0,0,0,0,0,0,0],"sum_hessian":[1.3171E4,1.0002E4,3.169E3,7.416E3,2.586E3,1.264E3,1.905E3,7.108E3,3.08E2,2.015E3,5.71E2,7.83E2,4.81E2,9.18E2,9.87E2,3.932E3,3.176E3,1.77E2,1.31E2,1.046E3,9.69E2,3.99E2,1.72E2,2.5E1,7.58E2,3.42E2,1.39E2,3.39E2,5.79E2,4.79E2,5.08E2,1.098E3,2.834E3,1.088E3,2.088E3,1.03E2,7.4E1,8.2E1,4.9E1,1.44E2,9.02E2,3.85E2,5.84E2,1.29E2,2.7E2,5E1,1.22E2,8E0,1.7E1,2.64E2,4.94E2,1.03E2,2.39E2,3.4E1,1.05E2,2.6E1,3.13E2,5.72E2,7E0,2.23E2,2.56E2,4.42E2,6.6E1],"tree_param":{"num_deleted":"0","num_feature":"51","num_nodes":"63","size_leaf_vector":"1"}},{"base_weights":[4.470161E-3,8.620733E0,-2.3850332E1,1.0333916E1,-8.817845E0,-1.3169005E1,-2.9570068E1,1.3330472E1,5.791405E0,1.4760925E0,-1.5121811E1,5.60478E-1,-1.5284715E1,-2.5144184E1,-3.4122204E1,1.6424667E1,1.1603432E1,7.1058564E0,-1.243715E1,6.6646423E0,-5.76136E0,-1.1456977E1,-1.9354239E1,7.328302E0,-1.78003E1,-1.2701477E1,-2.1585175E1,-2.4265644E1,-9.814273E-1,-3.1920418E1,-1.0909718E0,5.0462174E-1,4.0891212E-1,5.291735E-1,3.0671856E-1,2.5124872E-1,-1.8719895E-1,-2.4128257E-1,-7.223064E-1,3.736257E-1,2.4212636E-2,-7.159327E-2,-3.9211738E-1,-2.6309323E-1,-6.60348E-1,-3.2935613E-1,-6.3994855E-1,-2.1208361E-1,5.330977E-1,-2.9465047E-1,-8.7667733E-1,-2.470069E-1,-6.5620166E-1,-3.4705544E-1,-7.6510894E-1,-6.7345893E-1,-8.706133E-1,-9.3095636E-1,